tree
version=v4
num_class=1
num_tree_per_iteration=1
label_index=0
max_feature_idx=28
objective=regression
feature_names=hhi real_avg_corr max_weight top3_weight sector_hhi effective_n sector_count max_sector_weight etf_adjusted_n etf_weight_pct beta_concentration speculative_tail_weight portfolio_beta ret_6m_winsorized ret_1m_winsorized ret_1y_winsorized ret_5y_winsorized portfolio_return_vol_ratio portfolio_var_annual avg_pairwise_cov market_correlation vix_sensitivity rate_sensitivity energy_sensitivity momentum_score fwd_pe_ratio eps_growth_rate regime_resilience_score portfolio_alpha
monotone_constraints=-1 -1 -1 -1 -1 1 1 -1 1 1 -1 -1 -1 1 1 1 1 1 -1 -1 -1 0 0 1 1 -1 1 1 1
feature_infos=[0.049999999999999899:0.99999557935982364] [-0.84378670524708577:0.99312629062348057] [0.049999999999999899:0.99999778967518183] [0.14999999999999991:1.0000000000000002] [0.18287715968906201:1.0000000000000002] [1.0000044206597185:20.000000000000004] [1:8] [0.125:1.0000000000000002] [0.99999999999999956:1979.8668256853241] [0:1] [0.22597003544798069:2.5022021176417679] [0:1] [-0.1506991432054397:2.8397728538729452] [-0.62231395594780714:1.5430146596755894] [-0.39715664119983041:0.3774986792669266] [-0.67297189185977946:1.4562038371836803] [-0.27768953712220013:0.87921124651261118] [-3:5] [0.0035660998701417001:1.4769616827024474] [-0.0084299305332280992:0.88730638492066227] [-0.1092295965174815:0.99302132203130522] [-0.86604548482118116:0.1143089438003162] [-3:1.2455423491317144] [-0.096788565588318401:1.7065663360188166] [-0.90978189162524503:1.4569886039833904] [5.1151048184193373:45.486701143155841] [-0.079638309595883305:0.33540396689390811] [0.18177929985155111:0.63933353435711504] [-0.78065872260323732:1]
tree_sizes=2837 2947 2932 3031 3037 2945 3023 3054 3020 2871 2862 2950 2954 2955 3045 2784 3036 2860 2862 3035 2681 2681 2673 2590 2775 2956 2768 2883 2587 2411 2859 2764 2874 2793 2424 2606 2421 2881 2772 2510 2865 2701 2423 2337 2338 2329 2522 2424 2394 2769 2416 2071 2266 2354 2073 1891 2136 1962 2158 2143 1704 2157 2339 1711 1726 2430 1982 1710 1722 2170 1975 1997 1796 1724 1791 2078 2441 1884 1621 2068 1973 1801 1361 1915 1871 1893 1704 1798 1979 1779 1614 1810 1880 1702 1530 2158 2145 1531 1901 1704 2153 1534 2321 1610 1434 2088 1871 1974 1961 1794 2234 1532 1975 1969 1509 1610 1526 2039 1685 1263 1499 2033 1989 2089 1674 1712 1990 1755 2326 2246 1775 1979 1705 1348 2183 1674 1735 1783 2896 1780 1584 1520 2434 1885 1774 2750 1878 1882 1735 1781 1486 2033 1600 1262 1636 1701 1795 2257 1830 1720 1667 2359 1957 1892 1869 2439 2262 2238 1836 1448 2602 1605 2628 2422 1343 1915 2255 2036 2397 2168 1965 1149 1495 2523 2052 1592 2415 1887 2224 1984 1700 1434 1435 2076 2213 2110 1590 2600 1246 2341 2134 1688 2432 2246 2235 1432 1617 1593 1398 2623 1263 2281 1839 2135 1706 2079 1456 1146 1435 1781 2327 1593 1668 2179 1454 2347 1961 1612 1878 1419 1994 2236 2729 2066 1418 1126 2272 2077 1041 1365 1585 2338 1809 1706 1329 1399 1773 1967 1883 1578 1594 1693 1818 1443 1885 1617 1597 1510 1298 2346 2256 1334 1778 1873 1343 1795 2624 2452 2139 1814 1505 2235 1320 2267 2624 1156 961 1879 1869 1303 1687 1983 2013 1713 2236 1129 1411 1511 2329 957 2124 1504 2394 1907 1802 2254 1854 2230 1054 2312 2241 1868 1157 2522 1965 1867 2373 2332 1503 1783 1777 2039 1791 2333 2519 1512 2500 1697 1973 1495 2627 2702 2438 1316 1315 1706 1884 2352 2485 2359 2153 2260 2144 1944 2075 1856 1548 1534 2603 2038 1597 2339 2079 2412 2064 2686 1132 1780 2389 2403 2129 2619 1862 2252 1886 2465 2264 1944 1149 2414 1686 1673 1781 2371 2126 2313 2334 2256 1894 2000 2427 1888 1691 2327 1400 1764 1984 1634 2542 1788 2170 1985 1433 2361 2251 1781 1968 2118 1809 2528 2344 1409 1984 2082 1696 2233 1803 1059 1129 2174 1808 1149 1156 2253 2041 2425 2082 1695 1430 2362 1879 1620 2150 2224 1949 1903 1800 1892 2358 1041 2240 953 2701 1811 1820 2186 1334 2354 1695 1812 1589 1955 2125 2531 2141 2765 2690 2135 2143 2245 1392 1990 2269 1423 2264 2434 977 1258 2609 2256 2081 1897 1720 1884 2059 1348 1158 2047 1758 1428 1616 1596 1876 2272 2340 2345 1971 2261 1958 2357 2607 2049 2148 1415 2057 1709 1681 2285 1716 1168 1977 1503 1951 876 2507 2353 2442 1718 2557 2251 1699 2347 1701 2170 2056 1988 969 1981 2175 2070

Tree=0
num_leaves=31
num_cat=0
split_feature=2 2 5 17 24 17 17 5 7 3 2 5 17 17 17 5 17 2 13 7 17 17 13 17 17 17 17 17 17 13
split_gain=4.07641e+06 420146 255788 143938 130041 105559 86076.8 36762.2 34858.1 29848.6 25491.5 23019.9 21899.1 21000.9 18644.4 17079 15474.6 14514 13379.1 11765.1 10428 9313.57 8713.23 8408.63 7217.93 5333.35 5006.22 2962.32 2108.23 1732.31
threshold=0.31703463309787877 0.23800263367300797 2.9995883932400482 0.66166126413118287 0.077956681538256259 0.64125819171845211 0.53372664634297273 4.6053388382314564 0.73881873265011022 0.63104940694273282 0.19999752681583002 5.2082904997724162 -0.41885736437657878 -2.0043162196163631 1.8784073548632969 4.343743001295592 1.728944137327183 0.16049456613087718 0.08472221702684371 0.69911869987005038 1.4977274221521641 1.597798812169146 -0.21694893634533 -0.28858022664384236 1.712179392244555 1.804002390977917 -0.68667240932072204 -1.7552589590416463 0.10123887663490196 0.0074644192033803012
decision_type=2 2 2 2 2 2 2 2 2 2 2 2 2 2 2 2 2 2 2 2 2 2 2 2 2 2 2 2 2 2
left_child=1 4 6 12 13 11 19 14 16 29 18 26 27 -1 -5 -14 -8 -15 -6 23 -11 -12 -13 -2 -9 -10 -3 -4 -21 -7
right_child=2 5 3 7 10 9 8 24 25 20 21 22 15 17 -16 -17 -18 -19 -20 28 -22 -23 -24 -25 -26 -27 -28 -29 -30 -31
leaf_value=55.602079866000658 54.752644666640464 55.131917606816067 54.777405026761237 55.313743482477577 56.156125842801814 55.830509893715615 55.103285346736079 55.561051375714456 54.853962389108865 55.648497685353256 55.999998297354885 55.355393068971466 55.103285346736079 56.035811626599333 55.499849447700704 55.313351203251074 55.304006151963307 55.939109460141204 56.267309722647148 54.678898382446441 55.830509893715615 56.156125842801814 55.602079866000658 54.902266246072472 55.78616353568146 55.026616825750303 55.355393068971466 54.971430178139109 54.786442231076073 55.939109460141204
leaf_weight=203 676.5 160.5 150 2722 2960.5 151 1878.5 586.5 1031.5 1030.5 1349.5 116.5 2159.5 2622.5 1260.5 822 945.5 2638 4201 887.5 954.5 885.5 1684.5 1119 372.5 401.5 751 863.5 460 1741
leaf_count=202 557 139 147 2149 2435 125 1491 500 827 833 1125 98 1695 2205 945 691 719 2203 3296 727 744 690 1426 871 296 316 595 715 372 1372
internal_value=55.6138 55.9764 55.1378 55.2818 56.0943 55.7106 54.9638 55.4262 55.0811 55.8445 56.1845 55.5192 55.1033 55.9391 55.3726 55.1579 55.1033 55.9547 56.2214 54.8051 55.7353 56.0665 55.6021 54.8723 55.6485 54.9023 55.3554 54.9426 54.7155 55.9391
internal_weight=37786 21449.5 16336.5 8936.5 14860 6589.5 7400 4941.5 4257 3877 9396.5 2712.5 3995 5463.5 3982.5 2981.5 2824 5260.5 7161.5 3143 1985 2235 1801 1795.5 959 1433 911.5 1013.5 1347.5 1892
internal_count=30506 17488 13018 7138 12156 5332 5880 3890 3353 3074 7546 2258 3248 4610 3094 2386 2210 4408 5731 2527 1577 1815 1524 1428 796 1143 734 862 1099 1497
is_linear=0
shrinkage=1


Tree=1
num_leaves=31
num_cat=0
split_feature=0 0 5 17 24 17 17 7 17 17 17 0 17 7 14 17 17 17 5 0 0 5 24 7 13 17 17 5 17 17
split_gain=3.75623e+06 297148 279936 117231 111875 107433 103886 44432 24029.6 21574.9 21571.9 20823.9 20052.1 18323.1 16527.1 13465.1 12890.1 11274.8 13467.4 10921.2 10565.4 8742.58 8490.63 7430.12 6012.12 4243.03 3821.72 3357.97 2316.27 1637.63
threshold=0.20000541447929654 0.14285796013750804 3.2630491030479805 0.66166126413118287 0.077956681538256259 0.81200669459015695 0.56738268665873759 0.73881873265011022 0.064841573162460156 1.767396593278207 -2.0043162196163631 0.16666906274355461 -0.41885736437657878 0.72461672654929432 -0.051786856056520544 1.4838714136123221 -0.71845079985859661 1.8986019032744548 5.8871537510791763 0.25000042019743945 0.25000042019743945 4.3709177038655556 0.14911148244635888 0.61619291415088984 -0.24081993921099987 -0.28858022664384236 1.804002390977917 5.9783087925049863 1.641759669342993 0.92667755291939724
decision_type=2 2 2 2 2 2 2 2 2 2 2 2 2 2 2 2 2 2 2 2 2 2 2 2 2 2 2 2 2 2
left_child=1 4 5 12 10 8 16 15 23 20 -1 29 24 -10 28 -7 27 -13 -18 -14 -5 -11 -16 -2 -4 -12 -9 -3 -6 -8
right_child=2 6 3 9 14 7 11 26 13 21 25 17 19 -15 22 -17 18 -19 -20 -21 -22 -23 -24 -25 -26 -27 -28 -29 -30 -31
leaf_value=-0.041187413755908335 -0.73735545810250902 -0.35055944341962741 -0.73735545810250902 -0.13126890117101933 0.35535354244489853 -0.4550693218604448 0.27331853495563996 -0.70488183841346497 -0.55590691123665259 -0.075230574745834666 0.2813373079725493 0.12902334416534283 -0.31641673608901538 -0.79520691950425693 0.50555241638590998 -0.28887218059924141 -0.10084282016039683 0.32245315343816389 0.092350469748415487 -0.48044411479633498 -0.28828223589636476 0.12635079576160224 0.5995935654907415 -0.88080479269537781 -0.5441927062832399 0.35535354244489853 -0.55559890373809584 -0.12158172706324719 0.50555241638590998 0.35535354244489853
leaf_weight=193.5 1069.5 226 199 1634.5 518 1494.5 425 794.5 1605.5 1142.5 1488.5 1596.5 1587 754 2090.5 1635 1155.5 691 1153.5 1102 1182 492.5 5883 1281.5 678 3333 426.5 188 72 1693.5
leaf_count=193 863 202 165 1291 420 1178 351 640 1268 849 1296 1313 1234 610 1724 1252 948 530 937 893 951 382 4739 1047 577 2792 336 169 53 1303
internal_value=-1.73275e-05 0.362167 -0.439162 -0.266993 0.471959 -0.591496 0.153042 -0.448144 -0.723873 -0.130085 0.321905 0.273079 -0.437882 -0.652816 0.559826 -0.36826 -0.0411874 0.187474 -0.00432752 -0.383663 -0.197177 -0.0144999 0.574948 -0.815602 -0.604024 0.338662 -0.652816 -0.246675 0.355354 0.338662
internal_weight=37786 20707.5 17078.5 8017.5 13578.5 9061 7129 4350.5 4710.5 4451.5 5015 4406 3566 2359.5 8563.5 3129.5 2723 2287.5 2309 2689 2816.5 1635 7973.5 2351 877 4821.5 1221 414 590 2118.5
internal_count=30506 16970 13536 6342 11217 7194 5753 3406 3788 3473 4281 3497 2869 1878 6936 2430 2256 1843 1885 2127 2242 1231 6463 1910 742 4088 976 371 473 1654
is_linear=0
shrinkage=0.04


Tree=2
num_leaves=31
num_cat=0
split_feature=2 2 0 15 17 15 17 7 2 3 2 17 15 17 17 5 3 15 17 3 17 17 15 7 21 15 15 7 17 17
split_gain=3.47677e+06 356989 216114 124882 122755 92526.3 72899.8 29512.3 28366.4 23952.8 21060 18776.7 16680 15154.2 14578.4 14545.2 14275.2 10571 10459.6 7913.36 7060.15 6816.96 6795.19 6637.44 5169.96 5009.59 5008.73 4491.95 3391.8 2926.55
threshold=0.31703463309787877 0.23800263367300797 0.33337907997085597 0.1084980957278326 0.66166126413118287 0.091807528863987659 0.53372664634297273 0.76641064529403768 0.19424783854817942 0.74031862343693999 0.19912658380834677 -0.41885736437657878 -0.18857758019217305 1.728944137327183 1.4712835726435123 5.3961424857872027 0.7370772753654401 -0.0047790553508662492 -0.30791036209946127 0.66059375023890288 1.4977274221521641 1.597798812169146 -0.12772059691232049 0.75121226998502222 -0.73117068548670139 0.21584408282361242 0.15686373481980859 0.63352344422482598 1.782566616752735 -1.4336289329323291
decision_type=2 2 2 2 2 2 2 2 2 2 2 2 2 2 2 2 2 2 2 2 2 2 2 2 2 2 2 2 2 2
left_child=1 3 4 8 11 18 17 13 12 25 24 -2 -1 -8 -11 20 -13 27 29 -20 -7 -12 -10 -19 -5 -6 -17 -4 -9 -3
right_child=2 5 6 10 9 15 7 28 22 14 21 16 -14 -15 -16 26 -18 23 19 -21 -22 -23 -24 -25 -26 -27 -28 -29 -30 -31
leaf_value=0.20500855527189132 -0.6208951372287167 -0.3863525433462337 -0.73725015020005391 0.51554361574045493 -0.11048786938989197 0.032430014221465291 -0.48169315613682906 -0.71395648988636473 0.032430014221465291 -0.32352040208609273 0.37144504899431618 -0.28843103961329003 0.38795475322503886 -0.29163863392708139 -0.15800076113802608 0.18112708794506965 -0.47912016683493547 -0.6208951372287167 0.032430014221465291 -0.10521705002187658 0.18112708794506965 0.51554361574045493 0.20500855527189132 -0.79282833514443041 0.59258781821431916 0.032430014221465291 0.31004725111687398 -0.86544102149919699 -0.56629797673802718 -0.18718209370627187
leaf_weight=479.5 1013.5 143.5 790 1236.5 664 888.5 2020.5 875 310 1682 1263.5 901.5 3929 1007 1725.5 556 2080 910 962 671 702.5 903.5 1349.5 430 5388.5 870 1996 1013 354.5 670
leaf_count=408 862 139 637 968 555 709 1602 704 266 1326 1050 758 3308 766 1300 467 1628 712 798 540 543 705 1117 351 4334 709 1576 827 281 560
internal_value=3.58893e-05 0.334888 -0.439617 0.443554 -0.307217 0.0898296 -0.599497 -0.49158 0.303959 -0.173909 0.53989 -0.472094 0.359195 -0.472094 -0.239716 0.205009 -0.421482 -0.745631 -0.105217 -0.0468283 0.0840474 0.431559 0.205009 -0.671461 0.575314 -0.105217 0.205009 -0.809342 -0.671461 -0.222388
internal_weight=37786 21449.5 16336.5 14860 8936.5 6589.5 7400 4257 6068 4941.5 8792 3995 4408.5 3027.5 3407.5 4143 2981.5 3143 2446.5 1633 1591 2167 1659.5 1340 6625 1534 2552 1803 1229.5 813.5
internal_count=30506 17488 13018 12156 7138 5332 5880 3353 5099 3890 7057 3248 3716 2368 2626 3295 2386 2527 2037 1338 1252 1755 1383 1063 5302 1264 2043 1464 985 699
is_linear=0
shrinkage=0.04


Tree=3
num_leaves=32
num_cat=0
split_feature=2 2 0 17 15 15 17 5 0 15 5 17 0 17 17 0 2 17 2 15 13 17 17 15 15 2 17 17 17 2 15
split_gain=3.20256e+06 302257 217963 123222 102137 97266.9 67093.8 31980 27948 24456.4 22872.1 20553.5 14419.5 14148.7 12200.4 10475.1 9193.62 8488.55 8470.22 7828.57 7819.18 7473.43 5330.47 5324.34 4537.23 4317.94 4058.16 3770.79 3647.98 2889.06 1728.67
threshold=0.31083132966942817 0.21972868475798599 0.33337907997085597 0.73795260837215337 0.091807528863987659 0.12199574467041406 0.44094428903400978 5.7136620807750846 0.23021619830231685 -0.18857758019217305 1.8680362772247447 -0.14972808031912696 0.23021619830231685 1.4064664350229517 1.8784073548632969 0.15361160887675976 0.19912658380834677 -0.32263939048752338 0.16384090376134317 -0.0047790553508662492 0.26149852312431254 1.6777849443419315 -0.74943025732837976 0.16995935315923658 0.23145873977275877 0.61266000826684242 1.782566616752735 -2.0043162196163631 2.0236140418101369 0.75987966838078147 -0.27855492384049718
decision_type=2 2 2 2 2 2 2 2 2 2 2 2 2 2 2 2 2 2 2 2 2 2 2 2 2 2 2 2 2 2 2
left_child=1 5 3 11 15 9 19 21 24 30 26 22 -13 -12 -10 27 20 -17 -11 25 -7 -6 -2 -9 -5 -4 -8 -3 -18 -21 -1
right_child=2 4 6 8 7 16 10 23 14 18 13 12 -14 -15 -16 17 28 -19 -20 29 -22 -23 -24 -25 -26 -27 -28 -29 -30 -31 -32
leaf_value=0.070580081464925448 -0.64083537150218162 -0.25254645300063994 -0.7176017354369032 -0.067345443147572639 0.070580081464925448 0.54229259157212595 -0.64083537150218162 0.23397203469033781 -0.26902752653712081 0.39715766479529285 -0.49687421861669151 -0.2290493899296524 -0.43033996692221754 -0.32827249543313081 -0.1088779636895717 -0.25254645300063994 0.39424867966498267 -0.064637889143127736 0.32120555918524241 -0.64083537150218162 0.69033149693347184 0.21609603075405673 -0.49544884150435908 0.35562262336707384 0.070580081464925448 -0.84244130680859275 -0.49852121794848281 0.070580081464925448 0.54229259157212595 -0.79025377243154538 0.19101204907866856
leaf_weight=418.5 600 42.5 946.5 669.5 1178 5640.5 938.5 794.5 2286.5 3053.5 1775.5 806 1946 1447.5 1141.5 613.5 884 1286.5 2282.5 883 638 708 1051.5 2106 825.5 856.5 342.5 874 343 210 196.5
leaf_count=361 532 42 772 556 945 4529 738 668 1795 2559 1422 680 1534 1123 853 517 721 1035 1900 703 486 548 839 1671 670 692 263 762 258 167 165
internal_value=-9.62522e-05 0.32809 -0.413298 -0.28467 0.126482 0.441996 -0.575403 0.238941 -0.147153 0.321206 -0.478787 -0.438399 -0.371404 -0.438399 -0.215708 -0.0646379 0.53776 -0.0646379 0.348735 -0.725631 0.557353 0.1107 -0.54999 0.321206 -0.0646379 -0.776974 -0.623671 0.0705801 0.437443 -0.640835 0.0823159
internal_weight=37786 21059.5 16726.5 9326.5 7603 13456.5 7400 4786.5 4923 5951 4504 4403.5 2752 3223 3428 2816.5 7505.5 1900 5336 2896 6278.5 1886 1651.5 2900.5 1495 1803 1281 916.5 1227 1093 615
internal_count=30506 17167 13339 7459 6188 10979 5880 3832 3874 4985 3546 3585 2214 2545 2648 2356 5994 1552 4459 2334 5015 1493 1371 2339 1226 1464 1001 804 979 870 526
is_linear=0
shrinkage=0.04


Tree=4
num_leaves=32
num_cat=0
split_feature=0 2 5 17 15 15 17 7 5 15 2 7 15 15 2 17 17 17 0 3 13 2 15 13 17 15 17 17 15 15 15
split_gain=2.9514e+06 256384 219004 92637.8 91072.9 87418.6 85019.3 28874.4 27565.1 21501.4 19595.7 19574.6 17127.7 16950.2 13849.5 12313.7 11629.7 10528 9324.69 8635.82 7621.52 7002.74 4762.87 4732.88 4335.79 3723.93 3271.48 2535.58 1764.93 1604.25 1307.6
threshold=0.20000541447929654 0.21693998546809842 3.2630491030479805 0.66166126413118287 0.079517623500857462 0.11349550762903422 0.81200669459015695 0.7590843394262109 6.1887370672272093 -0.18857758019217305 0.33074296641529838 0.69911869987005038 -0.14255963204767694 -0.038861041358483346 0.32086091377109477 1.9626972213386806 1.8784073548632969 1.8986019032744548 0.15289923827268362 0.52969729929252318 0.26149852312431254 0.16384090376134317 0.16995935315923658 -0.24081993921099987 -0.30791036209946127 0.016305216925787902 -1.5944791235544482 2.4025786633524304 0.37144660784620304 0.20263897820547933 -0.27855492384049718
decision_type=2 2 2 2 2 2 2 2 2 2 2 2 2 2 2 2 2 2 2 2 2 2 2 2 2 2 2 2 2 2 2
left_child=1 5 6 12 18 9 11 16 17 30 29 13 23 -2 -14 -12 -8 -6 26 20 -7 -11 -10 -4 -20 -13 -3 -9 -21 -5 -1
right_child=2 4 3 10 8 19 7 27 22 21 15 25 14 -15 -16 -17 -18 -19 24 28 -22 -23 -24 -25 -26 -27 -28 -29 -30 -31 -32
leaf_value=0.080480216277871136 -0.70401642748816562 -0.18665737736798835 -0.70401642748816562 -0.056139261756167222 0.08598650318808973 0.5144030159339853 -0.38541079532002703 -0.62277009087595825 0.27162716082942345 0.37804245804296371 -0.22805595292662154 -0.80329976407920045 -0.18665737736798835 -0.50582888946974003 -0.39513519327525254 -0.056139261756167222 -0.22805595292662154 0.27162716082942345 -0.18665737736798835 0.37804245804296371 0.65556245276347436 0.3063649543950076 0.3686573965400623 -0.50186979622471473 -0.056139261756167222 -0.68525952985671834 0.080480216277871136 -0.45076602830053136 0.5144030159339853 0.078877846320107997 0.18406921574252708
leaf_weight=406.5 1099.5 65.5 199.5 455 1735.5 6270 2145.5 914.5 722.5 2908.5 2258 932 657.5 1866 2278.5 935 1126.5 680.5 607.5 538.5 681 2050.5 1755.5 430.5 1057 813 888 164 145.5 803.5 195
leaf_count=350 888 65 165 358 1440 5054 1690 735 612 2436 1791 764 527 1478 1821 700 853 531 522 424 523 1708 1390 356 873 658 772 128 106 624 164
internal_value=-0.000217625 0.320829 -0.389483 -0.237199 0.134282 0.427024 -0.524222 -0.396697 0.236146 0.306365 -0.115496 -0.641983 -0.38911 -0.579344 -0.348462 -0.177509 -0.38911 0.138291 -0.0561393 0.51489 0.528247 0.333759 0.306365 -0.578407 -0.0561393 -0.748372 0.0689384 -0.596687 0.379057 -0.0561393 0.0804802
internal_weight=37786 20707.5 17078.5 8017.5 7512 13195.5 9061 4350.5 4894 5560.5 4451.5 4710.5 3566 2965.5 2936 3193 3272 2416 2618 7635 6951 4959 2478 630 1664.5 1745 953.5 1078.5 684 1258.5 601.5
internal_count=30506 16970 13536 6342 6205 10765 7194 3406 3973 4658 3473 3788 2869 2366 2348 2491 2543 1971 2232 6107 5577 4144 2002 521 1395 1422 837 863 530 982 514
is_linear=0
shrinkage=0.04


Tree=5
num_leaves=31
num_cat=0
split_feature=0 3 5 17 24 17 17 7 7 17 7 3 17 14 5 17 7 17 13 7 21 17 13 17 17 17 17 1 17 17
split_gain=2.71728e+06 234124 202327 83363.5 82249.3 79873 74053.7 35797.6 20913.7 18309 16424 16247.4 16113.4 13715.8 13445.5 11844.6 11251.6 10016.7 9531.77 7894.04 7864.75 6972.1 4304.41 4010.48 3018.61 2907.77 2300.51 1399.87 1060.03 67.2337
threshold=0.20000541447929654 0.53855593175327787 3.34618305146578 0.81200669459015695 0.083315358734769626 0.73795260837215337 0.56738268665873759 0.73881873265011022 0.60402344704743149 -2.0043162196163631 0.65160078408621736 0.60556567971737374 -0.28858022664384236 -0.05456475432422294 3.9975097880005177 0.064841573162460156 0.62871854467012822 1.839467778047289 -0.24081993921099987 0.58507217068159723 -0.75833036894947681 0.10123887663490196 -0.24081993921099987 -1.1664622724121825 -0.78461703757429557 1.804002390977917 1.0013788732510764 0.27912717270618337 1.641759669342993 -0.74943025732837976
decision_type=2 2 2 2 2 2 2 2 2 2 2 2 2 2 2 2 2 2 2 2 2 2 2 2 2 2 2 2 2 2
left_child=1 4 3 8 9 12 18 19 15 -1 14 26 22 28 -7 -2 -14 -13 29 -5 -15 -10 -4 -20 -11 -9 -8 -12 -6 -3
right_child=2 6 5 7 13 10 11 25 21 24 27 17 16 20 -16 -17 -18 -19 23 -21 -22 -23 -24 -25 -26 -27 -28 -29 -30 -31
leaf_value=-0.043963865100132601 -0.61681984553491975 -0.38220760475121934 -0.61681984553491975 -0.25611544935654251 0.29380290364596301 -0.16332239303082957 0.20541195948154875 -0.60361187803058458 -0.74791222169749849 0.19787569119970333 -0.19755792532594973 0.086995650755359574 -0.26713934101007947 0.36389485517998699 -0.0040571806081982128 -0.43288964375145966 -0.48879582492713924 0.26244065399478966 -0.2550688708000835 -0.38249868042557916 0.50627850250484741 -0.61785882499439804 -0.48879582492713924 -0.012459226305142845 0.29380290364596301 -0.47381634813317275 0.29380290364596301 -0.36083322431968962 0.36389485517998699 -0.26713934101007947
leaf_weight=195 1083.5 127 192 2020.5 456.5 1412.5 504.5 800 1423.5 526.5 111.5 1476.5 2177 681 2122.5 1165.5 385.5 804.5 114 1302 7270.5 1245 857 2428 4468 429 1549.5 351.5 70 36
leaf_count=194 876 113 159 1549 368 1108 424 645 1163 477 82 1201 1744 512 1681 910 283 589 107 1032 5918 1005 716 2021 3724 338 1247 245 51 24
internal_value=-0.000376814 0.307673 -0.373884 -0.497305 0.404203 -0.220295 0.120265 -0.373914 -0.611496 0.278766 -0.0971178 0.222742 -0.356644 0.480977 -0.0677016 -0.52154 -0.305659 0.14889 -0.0439639 -0.305659 0.494092 -0.687276 -0.488796 -0.0439639 0.293803 -0.558373 0.293803 -0.305659 0.293803 -0.267139
internal_weight=37786 20707.5 17078.5 9469 13667.5 7609.5 7040 4551.5 4917.5 5189.5 3998 4335 3611.5 8478 3535 2249 2562.5 2281 2705 3322.5 7951.5 2668.5 1049 2542 4994.5 1229 2054 463 526.5 163
internal_count=30506 16970 13536 7518 11244 6018 5726 3564 3954 4395 3116 3461 2902 6849 2789 1786 2027 1790 2265 2581 6430 2168 875 2128 4201 983 1671 327 419 137
is_linear=0
shrinkage=0.04


Tree=6
num_leaves=32
num_cat=0
split_feature=2 2 0 15 15 15 15 0 3 7 15 15 0 0 7 1 1 13 15 15 2 1 15 15 15 15 15 12 11 12 15
split_gain=2.52382e+06 207778 190539 104049 74938.1 74246.9 52625.8 34252.3 21455.6 21056.6 19596.5 19051.9 15252.6 13861.2 11492.5 7503.15 7151.01 6834.22 6315.59 10651.3 6210.03 6132.02 5823.44 4908.64 4876.68 4488.42 3876.35 3643.64 1885.71 1367.84 1172.02
threshold=0.30374682058933428 0.21693998546809842 0.33337907997085597 0.13083100419558563 0.12199574467041406 0.10484577955571311 0.12738573685344742 0.22784598425947417 0.62194435314564267 0.76641064529403768 -0.18857758019217305 -0.064279569858484986 0.23021619830231685 0.17680521659806828 0.69911869987005038 0.47465981130919127 0.57732346532399814 0.29808638458057851 -0.11014525464445848 -0.014579362857811598 0.19912658380834677 0.30614278413615664 0.34040966848746895 -0.32193460098211807 0.31813031765015981 0.17830724839444129 0.35439191760588623 1.1294988922881917 0.56378412542644196 1.446796690684115 -0.27855492384049718
decision_type=2 2 2 2 2 2 2 2 2 2 2 2 2 2 2 2 2 2 2 2 2 2 2 2 2 2 2 2 2 2 2
left_child=1 4 3 11 10 13 14 26 25 22 30 23 -13 16 19 -12 -3 20 -15 -4 -6 -9 -8 -2 -10 -7 -5 -19 -16 -11 -1
right_child=2 5 6 7 17 8 9 21 24 29 15 12 -14 18 28 -17 -18 27 -20 -21 -22 -23 -24 -25 -26 -27 -28 -29 -30 -31 -32
leaf_value=0.070675285929338916 -0.65620737586846378 0.070675285929338916 -0.65620737586846378 -0.0016205619899381269 0.48465901076006623 0.23391664786003613 -0.38143201311398145 -0.11238258841052719 0.088275123831307034 -0.54829705159962305 0.36674865910532023 -0.20525092827414373 -0.37897187755128564 -0.31504527494660189 -0.6884027009340048 0.28689501352598085 -0.06102111175856937 0.70078720305474895 -0.08710646583762581 -0.47525233093106339 0.37780766094441898 -0.20525092827414373 -0.25422294583270888 -0.46856062896427847 0.21606197053924373 0.35455320001553503 0.1408600731347705 0.48465901076006623 -0.85409841513371287 -0.6884027009340048 0.16874356995698217
leaf_weight=406.5 253 1090.5 958 1201.5 5878.5 709 1815 1270 1300 1017 2393.5 1104 2196.5 254 1418.5 2821.5 763.5 328.5 830 1147 1026 2313 846 1103.5 756 1636.5 409.5 146 122.5 76 195
leaf_count=350 218 869 776 997 4708 605 1442 946 1036 814 1818 937 1760 207 1177 2542 708 270 668 894 818 1813 637 892 532 1349 324 95 84 56 164
internal_value=-0.000243133 0.299385 -0.356909 -0.241684 0.394277 0.128775 -0.51029 -0.118582 0.232714 -0.405129 0.286895 -0.378972 -0.327069 -0.0269419 -0.618545 0.31183 0.0394902 0.478912 -0.140558 -0.55765 0.46879 -0.187458 -0.378972 -0.505203 0.135278 0.286895 0.0346026 0.62599 -0.70166 -0.561162 0.0706753
internal_weight=37786 20535 17251 9851 13195.5 7339.5 7400 5194 4401.5 3754 5816.5 4657 3300.5 2938 3646 5215 1854 7379 1084 2105 6904.5 3583 2661 1356.5 2056 2345.5 1611 474.5 1541 1093 601.5
internal_count=30506 16739 13767 7887 10765 5974 5880 4080 3522 2949 4874 3807 2697 2452 2931 4360 1577 5891 875 1670 5526 2759 2079 1110 1568 1954 1321 365 1261 870 514
is_linear=0
shrinkage=0.04


Tree=7
num_leaves=32
num_cat=0
split_feature=2 2 0 15 15 15 15 2 0 7 15 2 0 15 7 7 0 15 5 15 15 24 15 15 15 15 15 15 15 15 26
split_gain=2.32723e+06 239251 142592 88151.2 82298.9 59887.3 48012.6 22418.2 21535.1 16649.7 15910.9 14811.8 11410.4 10964.3 10426.5 9596.64 9097.13 9223.76 8333.04 7451.8 7021.19 4415.31 4174.89 4092.98 3801.94 3623.91 2846.98 3213.67 1685.78 1625.04 1604.85
threshold=0.31703463309787877 0.24153220711316484 0.3357062386527887 0.1084980957278326 0.13083100419558563 0.091807528863987659 0.12738573685344742 0.18075074369223412 0.22784598425947417 0.76641064529403768 -0.068020193403657989 0.19912658380834677 0.19492144611080378 -0.2016063388291828 0.69911869987005038 0.64632342013376542 0.21117168332690969 -0.038861041358483346 5.3961424857872027 -0.16001282287681873 -0.15013526363133603 0.7213346062192264 -0.34297954656657414 0.31181383241639915 -0.08959187997920913 0.15686373481980859 0.33666819420133159 0.41502144761791782 0.17359471980765012 0.0073036308690860507 0.066283665263871014
decision_type=2 2 2 2 2 2 2 2 2 2 2 2 2 2 2 2 2 2 2 2 2 2 2 2 2 2 2 2 2 2 2
left_child=1 3 4 7 10 12 14 13 27 28 22 21 20 -1 17 -10 -12 -4 26 -9 -3 -5 -2 -13 -14 -20 -7 -6 -8 -16 -11
right_child=2 5 6 11 8 18 9 19 15 30 16 23 24 -15 29 -17 -18 -19 25 -21 -22 -23 -24 -25 -26 -27 -28 -29 -30 -31 -32
leaf_value=0.16171326214634602 -0.64316695675914892 -0.21991928648401918 -0.64316695675914892 0.46758966063667717 -0.022562051349629252 0.038427017711500588 -0.40664135524910083 -0.031741579675373714 -0.15812947652551343 -0.6277888363047992 -0.21991928648401918 0.31868898226638498 -0.35999894677390593 0.32675751807592607 -0.71248870701093814 -0.33044273199175095 -0.36375952856418492 -0.46921016174256125 0.12904806058743845 0.17229303514024863 0.0038551804845208238 0.80862269005539544 -0.46867994561362347 0.43520092296919088 -0.16294135232966742 0.24819856948389885 0.16131927796684387 0.14822384576302183 -0.33044273199175095 -0.62828206274930198 -0.51137771408118193
leaf_weight=407.5 203.5 240.5 803.5 6563.5 965.5 1177.5 469.5 322 2945 251 507.5 1632.5 220.5 3485.5 856 627.5 2570.5 1251 523 1955 1347 61.5 1036.5 688 543 1877 405.5 215.5 2122.5 675 836.5
leaf_count=347 175 202 650 5248 802 938 377 277 2306 199 438 1347 179 2931 699 446 2067 981 439 1631 1142 54 841 535 433 1477 308 170 1648 553 666
internal_value=-0.000362655 0.273595 -0.360063 0.360072 -0.254298 0.0672198 -0.492118 0.243749 -0.13946 -0.390573 -0.380708 0.440298 -0.092866 0.302713 -0.596303 -0.18841 -0.331933 -0.537288 0.161713 0.161713 -0.0317416 0.470775 -0.50172 0.353262 -0.219919 0.161713 0.0699231 0.00861146 -0.380708 -0.675432 -0.538334
internal_weight=37786 21449.5 16336.5 15115.5 9071.5 6334 7265 6170 4753.5 3679.5 4318 8945.5 2351 3893 3585.5 3572.5 3078 2054.5 3983 2277 1587.5 6625 1240 2320.5 763.5 2400 1583 1181 2592 1531 1087.5
internal_count=30506 17488 13018 12370 7245 5118 5773 5186 3724 2890 3521 7184 1956 3278 2883 2752 2505 1631 3162 1908 1344 5302 1016 1882 612 1916 1246 972 2025 1252 865
is_linear=0
shrinkage=0.04


Tree=8
num_leaves=32
num_cat=0
split_feature=0 0 5 15 17 15 17 7 7 1 17 1 17 17 1 7 14 15 0 13 7 0 15 17 0 15 7 1 17 1 17
split_gain=2.13423e+06 173349 159678 75180.3 67056 63731.2 58743.4 36782.7 15938 15923.9 11691 11326.3 10854.6 10520 9698.27 9431.49 7343.45 7167.13 7536.75 5514.28 4945.01 4666.85 4409.16 4221.69 3221.06 2496.56 1337.13 1135.84 841.122 567.276 465.398
threshold=0.20000541447929654 0.14635718810298062 3.34618305146578 0.12199574467041406 0.38274530958854697 0.12028433498956852 0.56738268665873759 0.73881873265011022 0.65160078408621736 0.58804764093025108 1.9626972213386806 0.52757230137232691 -0.41885736437657878 -2.0043162196163631 0.62823569669521862 0.63352344422482598 -0.051786856056520544 0.35439191760588623 0.17553037644822322 0.26149852312431254 0.33821423598208766 0.16905244620540352 -0.038861041358483346 1.4572761732886936 0.11203966014725587 -0.0047790553508662492 0.69911869987005038 0.34507833264554111 -0.71845079985859661 0.45217720634723607 1.8784073548632969
decision_type=2 2 2 2 2 2 2 2 2 2 2 2 2 2 2 2 2 2 2 2 2 2 2 2 2 2 2 2 2 2 2
left_child=1 3 4 9 15 12 11 14 10 24 -7 21 28 -11 -6 22 30 18 -8 -18 -14 -3 -2 -9 -1 -17 -13 -10 -4 -19 -5
right_child=2 6 5 16 7 8 17 23 27 13 -12 26 20 -15 -16 25 19 29 -20 -21 -22 -23 -24 -25 -26 -27 -28 -29 -30 -31 -32
leaf_value=0.30076376150086903 -0.57748554889374348 0.12610671654014705 -0.45214202573251755 0.30076376150086903 -0.3005747232344943 -0.1076588943158607 0.19872666299339894 -0.57604516762217561 -0.19354699293170691 -0.1076588943158607 0.047924792896212418 -0.1076588943158607 -0.13285854120354265 0.19872666299339894 -0.4466904647707079 -0.68422822155900631 0.43232541077091163 0.30076376150086903 0.093017400183100798 0.54510254624343513 -0.3005747232344943 -0.028398534170756252 -0.45214202573251755 -0.4466904647707079 0.24130556429666178 -0.57937042551491813 -0.3005747232344943 -0.3005747232344943 -0.38705005807012532 0.24081748973469036 0.43232541077091163
leaf_weight=2473.5 927.5 577.5 500.5 262.5 3640 2553 1786.5 1003 160 172 1108 1261.5 317 2068 728.5 1125.5 6705.5 751 1337.5 777 2301.5 682 841.5 652.5 1462.5 550.5 47 343.5 326 295 48.5
leaf_count=1965 748 440 439 220 2740 2048 1453 809 111 172 841 1129 240 1947 672 920 5437 524 1089 604 1843 527 661 516 1158 452 30 237 259 240 35
internal_value=-0.000316864 0.272691 -0.331336 0.353068 -0.44098 -0.194892 0.106045 -0.360463 -0.0895984 0.248815 -0.0605699 -0.0444543 -0.322165 0.198727 -0.322165 -0.581749 0.435676 0.198727 0.168363 0.444048 -0.300575 0.0424463 -0.517181 -0.524389 0.300764 -0.649845 -0.107659 -0.300575 -0.452142 0.28937 0.300764
internal_weight=37786 20707.5 17078.5 13969.5 9469 7609.5 6738 6024 4164.5 6176 3661 2568 3445 2240 4368.5 3445 7793.5 4170 3124 7482.5 2618.5 1259.5 1769 1655.5 3936 1676 1308.5 503.5 826.5 1046 311
internal_count=30506 16970 13536 11538 7518 6018 5432 4737 3237 5242 2889 2126 2781 2119 3412 2781 6296 3306 2542 6041 2083 967 1409 1325 3123 1372 1159 348 698 764 255
is_linear=0
shrinkage=0.04


Tree=9
num_leaves=30
num_cat=0
split_feature=2 5 2 17 17 24 24 7 7 0 17 0 3 24 14 17 17 17 17 17 24 21 17 7 0 17 24 17 17
split_gain=1.98683e+06 183797 127443 68491.5 67366.6 52944.2 51514.7 26849 22703.4 15899.8 13676.2 13105.3 13040.1 11903.1 10379.5 6998.76 6553 6284.03 6262.7 5803.25 5679.82 5415.47 5304.42 4957.69 4387.68 3993.21 2359.43 1809.63 769.736
threshold=0.29114039886921222 3.5225123831688689 0.21549338867333903 1.0634461260102497 0.73795260837215337 0.083315358734769626 0.051601855441137205 0.68573988226459925 0.6203429657239482 0.23021619830231685 0.064841573162460156 0.23021619830231685 0.6188511409394839 -0.2729325217297901 -0.050450882388946898 0.20971148690614447 -0.62727172789789509 1.8784073548632969 1.8784073548632969 1.9834757861517842 0.074228027140680816 -0.74813332894903695 -1.1664622724121825 0.85171477296949305 0.15289923827268362 1.0013788732510764 0.17019928160005823 -0.86241753629760154 1.641759669342993
decision_type=2 2 2 2 2 2 2 2 2 2 2 2 2 2 2 2 2 2 2 2 2 2 2 2 2 2 2 2 2
left_child=2 3 5 8 9 13 22 17 10 20 -2 26 25 -1 28 -10 -11 -5 -13 -14 -3 -16 -4 -9 -24 -8 -6 -15 -7
right_child=1 4 6 7 11 14 12 23 15 16 -12 18 19 27 21 -17 -18 -19 -20 -21 -22 -23 24 -25 -26 -27 -28 -29 -30
leaf_value=0.04712017993976552 -0.52223612183236046 -0.23677437751580338 -0.2262021607653199 -0.26312136309418938 -0.032966569870834204 0.26726654448537218 0.18006460912972175 -0.36811030725599592 -0.63489407750779503 -0.52223612183236046 -0.36310548745633969 -0.18701338147736382 0.087670672130794186 0.18006460912972175 0.33105559490178726 -0.51262402168280408 -0.3298908429934938 -0.13869548446690735 -0.037337758892038692 0.23887152772268411 -0.072886966032184558 0.43874168595491581 0.04712017993976552 -0.51262402168280408 -0.031120972532314235 0.26726654448537218 0.060644937453062875 0.26726654448537218 0.33105559490178726
leaf_weight=430.5 1320 1420.5 201 1515.5 589.5 488.5 855 813 1526.5 301.5 1957 1313.5 1414 288.5 844.5 1485 1556 1138 678.5 570 444.5 6692.5 751 513 1099.5 1659 1598.5 4235.5 86
leaf_count=372 1070 1205 192 1187 488 388 734 640 1250 254 1537 1026 1108 264 641 1203 1209 860 502 404 374 5398 646 413 880 1368 1298 3533 62
internal_value=-0.000163767 -0.301526 0.278998 -0.413131 -0.156508 0.351184 0.134985 -0.283244 -0.495317 -0.280262 -0.422404 -0.0462912 0.210745 0.248141 0.414116 -0.574632 -0.363105 -0.209772 -0.136042 0.131128 -0.197726 0.426683 -0.031121 -0.430225 -0.00991153 0.248141 -0.031121 0.267267 0.267267
internal_weight=37786 18170.5 19615.5 10268 7902.5 13066 6549.5 3979.5 6288.5 3722.5 3277 4180 4498 4954.5 8111.5 3011.5 1857.5 2653.5 1992 1984 1865 7537 2051.5 1326 1850.5 2514 2188 4524 574.5
internal_count=30506 14516 15990 8160 6356 10658 5332 3100 5060 3042 2607 3314 3614 4169 6489 2453 1463 2047 1528 1512 1579 6039 1718 1053 1526 2102 1786 3797 450
is_linear=0
shrinkage=0.04


Tree=10
num_leaves=30
num_cat=0
split_feature=2 2 7 17 15 15 2 15 15 17 15 7 2 2 17 17 14 17 2 15 17 7 17 15 7 17 11 15 17
split_gain=1.83294e+06 150561 133721 90445 54940 54398.2 28758.4 28694.5 14318.3 14268.3 13102 12987.3 12526.6 6693.82 6563.51 10189.5 5890.07 5733.69 5262.52 4950.81 4927.63 5354.54 4559.95 3919.34 2789.19 2510.16 2321.54 1603.66 758.665
threshold=0.30374682058933428 0.21549338867333903 0.6203429657239482 0.5447659569502169 0.091807528863987659 0.1084980957278326 0.37829905946508419 0.1084980957278326 -0.27855492384049718 1.8784073548632969 -0.068020193403657989 0.76641064529403768 0.27364720677753251 0.33274515307933705 -0.41885736437657878 1.3831103811580758 -0.059711424269219847 1.4446436246619936 0.19425210699844411 -0.0073579353422093489 1.6128225827400546 0.71133910298290337 1.6777849443419315 -0.34297954656657414 0.69911869987005038 2.4025786633524304 0.6170070377021758 -0.17806848604743672 -1.1664622724121825
decision_type=2 2 2 2 2 2 2 2 2 2 2 2 2 2 2 2 2 2 2 2 2 2 2 2 2 2 2 2 2
left_child=1 5 3 10 14 8 15 19 -1 -8 23 20 17 -12 28 -5 -7 -6 -18 26 -9 -21 -14 -2 -16 -13 -4 -10 -3
right_child=2 4 7 6 12 16 9 11 27 -11 13 25 22 -15 24 -17 18 -19 -20 21 -22 -23 -24 -25 -26 -27 -28 -29 -30
leaf_value=0.0095879919199148324 -0.59830824033479679 -0.1622617086551707 -0.59830824033479679 -0.1147305535353693 0.17923903975582392 0.25770927095349727 -0.25000075956957024 -0.3665143939029214 0.15185398394920138 -0.086549821148775088 -0.1622617086551707 -0.4991137182071666 0.035616457932648407 -0.31366300084589555 0.0095879919199148324 0.0095879919199148324 0.42656910980052126 0.25770927095349727 0.33744029019285898 -0.40545035794657602 -0.25000075956957024 -0.57444930865524169 0.18670830707821962 -0.42701018845944233 -0.1260697048627161 -0.33067359015004116 -0.74944980644271941 0.25770927095349727 -0.1260697048627161
leaf_weight=402.5 256.5 221 1210.5 1385.5 1711.5 219.5 2812 1151.5 230 1228 468 1131 838.5 2567.5 1933 1399.5 6221 1613.5 1283 539.5 757.5 683 516.5 1323 65.5 163.5 174.5 4710 569.5
leaf_count=347 223 212 1005 1126 1420 171 2240 901 195 928 395 914 692 2064 1600 1097 4974 1234 1032 420 566 568 403 1075 44 129 116 3939 476
internal_value=-6.8629e-05 0.255276 -0.304022 -0.224645 0.112017 0.337166 -0.132153 -0.460281 0.239018 -0.200325 -0.361418 -0.380044 0.195763 -0.312761 -0.0285112 -0.0332541 0.40505 0.23754 0.411338 -0.558827 -0.313663 -0.499932 0.0932285 -0.454886 0.00958799 -0.477885 -0.610747 0.257709 -0.12607
internal_weight=37786 20535 17251 11440 7469 13066 6825 5811 5342.5 4040 4615 3203.5 4680 3035.5 2789 2785 7723.5 3325 7504 2607.5 1909 1222.5 1355 1579.5 1998.5 1294.5 1385 4940 790.5
internal_count=30506 16739 13767 9148 6081 10658 5391 4619 4481 3168 3757 2510 3749 2459 2332 2223 6177 2654 6006 2109 1467 988 1095 1298 1644 1043 1121 4134 688
is_linear=0
shrinkage=0.04


Tree=11
num_leaves=31
num_cat=0
split_feature=0 3 0 15 15 15 15 7 7 15 0 3 0 7 15 15 13 7 7 13 1 15 0 1 15 12 19 15 27 13
split_gain=1.68426e+06 146980 126645 67060.5 56529.6 48566.2 36164.5 18516.4 16460.3 15604.5 15496.5 11826.4 11197.1 7704.02 7458.13 7409.43 6826.81 4727.42 4683.94 4676.15 4344.02 4343.83 4965.71 3837.46 3395.13 2957.51 1913 1605.73 1432.79 1258.95
threshold=0.20000541447929654 0.53855593175327787 0.33337907997085597 0.070036516814102515 0.1084980957278326 0.088042953293097664 0.12738573685344742 0.62871854467012822 0.6203429657239482 -0.23393197404107716 0.25000042019743945 0.60000547136255877 0.25000042019743945 0.75121226998502222 -0.2016063388291828 -0.014579362857811598 0.2560227991771471 0.6203429657239482 0.82545099197877969 -0.021978491912015497 0.64107325454604802 0.33270154349185382 0.1655958285822309 0.30614278413615664 -0.25440843361499527 1.141518816139891 0.034526971685615408 -0.38833023783580795 0.53252283900184427 0.050675247253069301
decision_type=2 2 2 2 2 2 2 2 2 2 2 2 2 2 2 2 2 2 2 2 2 2 2 2 2 2 2 2 2 2
left_child=1 4 3 12 9 14 13 10 20 27 -5 26 17 15 -3 -4 19 -2 -10 -6 -8 -13 -16 -9 -14 -18 -7 -1 -15 -11
right_child=2 5 6 7 16 11 8 23 18 29 -12 21 24 28 22 -17 25 -19 -20 -21 -22 -23 -24 -25 -26 -27 -28 -29 -30 -31
leaf_value=-0.080066474784256256 -0.23708247815315606 -0.23595982406934579 -0.54360912603078393 -0.046254800987908844 0.24260017036297718 0.24260017036297718 -0.21096361508913322 -0.16101030403362337 -0.36018945277462111 0.24260017036297718 -0.16101030403362337 0.081532829131695281 -0.54360912603078393 -0.63528906604575686 0.050908869373673511 -0.41297680395689007 0.54062027500922494 -0.41297680395689007 -0.48447907961757952 0.38065049930992362 -0.36018945277462111 0.19650438177496074 -0.046254800987908844 -0.32710576679289149 -0.41297680395689007 0.38065049930992362 0.19650438177496074 0.065895158024663031 -0.54695904945671037 0.27843064969840287
leaf_weight=191 1379.5 293 1119.5 2583.5 256 1391 1438 244 1317.5 3495 2736 1786 200 602.5 988 1321 614 232.5 772.5 6999 226 745.5 1247.5 737.5 1565.5 208 589 326.5 603 1578
leaf_count=175 1126 247 908 2049 202 1100 1078 183 1048 2974 2140 1460 169 482 833 1036 497 163 614 5683 209 537 1044 547 1279 137 505 272 505 1304
internal_value=4.04157e-05 0.242567 -0.29402 -0.198769 0.31905 0.0940779 -0.418591 -0.121675 -0.331414 0.221256 -0.0922143 0.172728 -0.342579 -0.508332 -0.0462548 -0.46737 0.386732 -0.281301 -0.406163 0.374329 -0.237497 0.115403 -0.0213739 -0.281301 -0.412977 0.496099 0.2426 0.0120041 -0.591184 0.2426
internal_weight=37786 20707.5 17078.5 9678.5 13667.5 7040 7400 6301 3754 5590.5 5319.5 4511.5 3377.5 3646 2528.5 2440.5 8077 1612 2090 7255 1664 2531.5 2235.5 981.5 1765.5 822 1980 517.5 1205.5 5073
internal_count=30506 16970 13536 7656 11244 5726 5880 4919 2949 4725 4189 3602 2737 2931 2124 1944 6519 1289 1662 5885 1287 1997 1877 730 1448 634 1605 447 987 4278
is_linear=0
shrinkage=0.04


Tree=12
num_leaves=31
num_cat=0
split_feature=2 5 2 17 15 17 15 7 7 0 17 3 15 5 17 17 15 5 15 7 17 15 17 1 1 1 1 15 17 15
split_gain=1.5648e+06 155208 92497.3 63605 50304.4 47682.4 37763.2 24534.8 23669.7 12585.2 14311.5 10941 10299.6 9258.6 6917.22 6433.63 6135.25 5698.62 5570.99 4551.49 4375.76 4030.87 3606.62 3349.3 2462.24 2130.88 2091.73 1817.85 1294.91 696.392
threshold=0.28761028335662786 3.7898998433393323 0.19999752681583002 1.1206165565249917 0.10484577955571311 0.73795260837215337 0.11349550762903422 0.67518949678696605 0.63352344422482598 0.21621439362395942 0.064841573162460156 0.62194435314564267 -0.23393197404107716 5.2082904997724162 -0.41885736437657878 -0.28858022664384236 0.016305216925787902 2.4046183566871737 0.37694833772791514 0.86347367324401303 1.9626972213386806 0.75079175358430106 1.9834757861517842 0.47465981130919127 0.072589619737304059 0.64513188230642127 0.67155163315448752 0.22191593265525142 -1.1664622724121825 -0.32193460098211807
decision_type=2 2 2 2 2 2 2 2 2 2 2 2 2 2 2 2 2 2 2 2 2 2 2 2 2 2 2 2 2 2
left_child=2 3 6 8 14 13 12 17 10 27 -2 18 29 15 28 -3 -10 -5 -6 -9 -11 24 -13 -14 -8 -16 -15 -7 -4 -1
right_child=1 5 4 7 11 9 21 19 16 20 -12 22 23 26 25 -17 -18 -19 -20 -21 -22 -23 -24 -25 -26 -27 -28 -29 -30 -31
leaf_value=0.049448137841890748 -0.45651494413306842 -0.36664315867341962 -0.10478200641711244 -0.28396291990227213 0.25116726307503251 0.015109831817463398 0.54825844534332635 -0.31846210004506686 -0.5749365223928764 -0.10478200641711244 -0.30518562958856527 0.091544652468971838 0.30404150649944667 -0.10478200641711244 0.049448137841890748 -0.22380842330922193 -0.46043483925547712 -0.13695924845675786 0.38741491266175204 -0.46043483925547712 0.0026088064267310172 0.71692372714783703 0.21896824089286576 0.25116726307503251 0.38741491266175204 0.023636902730133812 -0.22380842330922193 0.091544652468971838 -0.03664506881240432 0.13849201180313644
leaf_weight=276 1643 704.5 241.5 515.5 2660.5 708 155.5 905.5 1340.5 1317 2561 1080.5 1987 553.5 1749.5 1785 1713.5 2329.5 577.5 447.5 631.5 59.5 530 2386.5 6322.5 585 207.5 1071 600 140.5
leaf_count=242 1332 587 232 404 2207 589 153 719 1101 1032 2018 840 1501 461 1369 1408 1396 1794 454 359 465 55 371 2156 5025 552 200 865 505 114
internal_value=6.10508e-05 -0.263678 0.25129 -0.354263 0.147383 -0.114957 0.324894 -0.230316 -0.425946 -0.0173107 -0.364343 0.228438 0.239554 -0.226925 0.0236369 -0.264251 -0.510721 -0.163611 0.239554 -0.37054 -0.0927292 0.387415 0.133499 0.257655 0.387415 0.0494481 -0.104782 0.0236369 -0.0757065 0.0494481
internal_weight=37786 18434 19352 11456 8024.5 6978 11327.5 4198 7258 3727.5 4204 4848.5 4790 3250.5 3176 2489.5 3054 2845 3238 1353 1948.5 6537.5 1610.5 4373.5 6478 2334.5 761 1779 841.5 416.5
internal_count=30506 14730 15776 9123 6530 5607 9246 3276 5847 2951 3350 3872 4013 2656 2658 1995 2497 2198 2661 1078 1497 5233 1211 3657 5178 1921 661 1454 737 356
is_linear=0
shrinkage=0.04


Tree=13
num_leaves=31
num_cat=0
split_feature=2 2 5 17 24 24 1 17 17 2 24 2 1 7 21 17 0 17 0 1 17 5 12 24 3 17 17 1 1 17
split_gain=1.44396e+06 148740 92299.7 63047.5 51020.2 39671.4 25443 21173.7 17105.5 14962.6 9404.15 8853.06 7676.53 6619.55 6568.34 5266.55 4498.37 4369.17 4113.79 3916.32 3605.99 3554.8 2655.94 2621.02 2293.68 2136.35 1734.85 1149.74 433.533 103.339
threshold=0.31703463309787877 0.24153220711316484 2.655373907566529 1.3562916760338435 0.072353351049824918 0.063192804310120712 0.67155163315448752 1.3562916760338435 -0.14972808031912696 0.18075074369223412 1.0000000180025095e-35 0.19912658380834677 0.63784228753395911 0.65160078408621736 -0.73117068548670139 1.4317170263253984 0.17680521659806828 -0.30791036209946127 0.62737043601408649 0.61920117609535141 1.3562916760338435 3.5857494939178811 1.3956319971377 -0.1941819871450203 0.7370772753654401 1.8222133299481589 -2.0043162196163631 0.52233996681115669 0.69989427103332436 2.5380707374462594
decision_type=2 2 2 2 2 2 2 2 2 2 2 2 2 2 2 2 2 2 2 2 2 2 2 2 2 2 2 2 2 2
left_child=1 4 7 6 9 17 8 10 -4 12 22 14 -1 21 -6 16 -7 26 -12 25 -13 -5 -2 -11 -8 -9 -3 -19 -15 -21
right_child=2 5 3 13 11 15 24 19 -10 23 18 20 -14 28 -16 -17 -18 27 -20 29 -22 -23 -24 -25 -26 -27 -28 -29 -30 -31
leaf_value=0.27977813792874762 -0.52927867346689339 -0.34707014764521515 -0.36706831973495052 -0.11292646062583456 0.28553282452646062 0.11843533839523045 -0.36706831973495052 -0.32737522857613793 -0.20324969201425791 -0.023794948845492638 -0.41627202679671704 0.21477912910129246 0.15158901311951897 -0.20324969201425791 0.38037038568809389 0.12383215875982248 0.0060391552549584424 -0.023794948845492638 -0.5186925000068815 -0.41627202679671704 0.28553282452646062 -0.045974472696678266 -0.70915352964092748 0.12383215875982248 -0.41627202679671704 -0.22147729750410242 -0.1458126432833951 -0.045974472696678266 -0.34864532741093551 -0.34864532741093551
leaf_weight=2292 1257.5 76 1319.5 1269 1470 1155.5 420 496.5 4497 266.5 1946 1226.5 1110.5 445 5757.5 1959 1124 695 633 203 1265 1575.5 148.5 1727.5 1238.5 797 700 624.5 39 51.5
leaf_count=1823 1022 74 1036 962 1138 973 402 379 3478 229 1555 1028 1061 324 4650 1495 902 526 502 188 1000 1251 109 1441 1134 592 592 556 37 47
internal_value=-7.94099e-05 0.215716 -0.283414 -0.215365 0.283901 0.0529941 -0.279845 -0.416272 -0.240422 0.185268 -0.465052 0.338663 0.23795 -0.0705504 0.361089 0.123832 0.0630205 -0.0705504 -0.419606 -0.290662 0.273589 -0.0705504 -0.548355 0.123832 -0.416272 -0.262163 -0.165594 -0.0459745 -0.20325 -0.416272
internal_weight=37786 21449.5 16336.5 10803.5 15115.5 6334 7475 5533 5816.5 5396.5 3985 9719 3402.5 3328.5 7227.5 4238.5 2279.5 2095.5 2579 1548 2491.5 2844.5 1406 1994 1658.5 1293.5 776 1319.5 484 254.5
internal_count=30506 17488 13018 8624 12370 5118 6050 4394 4514 4554 3188 7816 2884 2574 5788 3370 1875 1748 2057 1206 2028 2213 1131 1670 1536 971 666 1082 361 235
is_linear=0
shrinkage=0.04


Tree=14
num_leaves=32
num_cat=0
split_feature=2 2 7 24 24 24 24 5 2 7 0 14 24 0 2 14 1 24 24 24 1 1 1 24 24 24 11 1 24 2 18
split_gain=1.33096e+06 136248 86336.1 56292.6 47252.8 37611.6 22007.5 18487.8 13748.5 13358.6 10724.3 9332.98 7427.47 7263.88 7171.64 6626.85 6482.02 5855.16 5227.28 4001.75 3799.26 3468.71 2799.94 2423.04 2416.72 2355.41 2151.61 1075.16 553.95 387.098 373.754
threshold=0.31703463309787877 0.24153220711316484 0.60402344704743149 0.039991407678911552 0.072353351049824918 0.063192804310120712 0.045904864445907606 3.5225123831688689 0.18075074369223412 0.76641064529403768 0.26780759165391838 -0.050450882388946898 0.17019928160005823 0.17125566704741932 0.19425210699844411 -0.046418784044273097 0.66769479978157131 0.27766170564456205 -0.2729325217297901 0.14911148244635888 0.65158181802725801 0.61632899786518103 0.28467706232624324 -0.17125087460068353 -0.1941819871450203 -0.25259922071100688 0.6170070377021758 0.62248322461644412 0.44747606272048673 0.18075074369223412 0.10668463978545306
decision_type=2 2 2 2 2 2 2 2 2 2 2 2 2 2 2 2 2 2 2 2 2 2 2 2 2 2 2 2 2 2 2
left_child=1 4 3 10 8 13 26 17 18 16 21 29 -9 25 -13 28 -8 -5 -1 -17 -12 -2 -11 -15 -10 -3 27 -4 -7 -6 -28
right_child=2 5 6 7 11 15 9 12 24 22 20 14 -14 23 -16 19 -18 -19 -20 -21 -22 -23 -24 -25 -26 -27 30 -29 -30 -31 -32
leaf_value=0.12018734435167698 -0.23661189344024236 -0.21004781098374137 -0.46076403270622207 -0.23661189344024236 0.22843317645944017 -0.00028480253724671425 -0.25164990951880845 -0.13781434779105664 -0.00028480253724671425 -0.33980242551293527 -0.36471156583630937 0.35949946710359781 -0.019212650655408697 -0.23661189344024236 0.27974102896832731 0.072836469787620678 -0.42545308624080536 -0.12453521751423059 0.22843317645944017 0.1647153635322105 -0.49046834186962485 -0.34518663500912766 -0.46076403270622207 -0.12397224577502985 0.10879014903762885 -0.00028480253724671425 -0.5552700668835423 -0.52000530395271438 0.1647153635322105 0.1647153635322105 -0.67961628550216302
leaf_weight=323 813 85.5 1193 2424 439 415.5 2167.5 1465 266.5 424 1266.5 6468.5 1996 219.5 2507.5 1051.5 408.5 1078.5 3079.5 2727.5 555.5 502 1130 975 1727.5 815.5 71.5 734 44 304 107.5
leaf_count=278 630 72 917 1896 350 334 1619 1199 229 334 949 5179 1595 179 2046 862 378 821 2606 2143 510 467 927 800 1441 697 47 658 31 241 71
internal_value=0.000210971 0.207391 -0.271811 -0.199552 0.27265 0.051652 -0.388842 -0.136164 0.177728 -0.335152 -0.340243 0.325352 -0.086968 -0.086968 0.337224 0.120187 -0.279237 -0.202109 0.228433 0.120187 -0.403093 -0.25312 -0.4278 -0.137814 0.120187 -0.000284803 -0.494098 -0.490468 -0.000284803 0.228433 -0.630487
internal_weight=37786 21449.5 16336.5 10100.5 15115.5 6334 6236 6963.5 5396.5 4130 3137 9719 3461 2095.5 8976 4238.5 2576 3502.5 3402.5 3779 1822 1315 1554 1194.5 1994 901 2106 1927 459.5 743 179
internal_count=30506 17488 13018 8067 12370 5118 4951 5511 4554 3258 2556 7816 2794 1748 7225 3370 1997 2717 2884 3005 1459 1097 1261 979 1670 769 1693 1575 365 591 118
is_linear=0
shrinkage=0.04


Tree=15
num_leaves=29
num_cat=0
split_feature=2 5 3 17 15 17 15 7 7 15 17 3 2 7 17 1 1 14 17 17 15 7 17 17 15 15 7 15
split_gain=1.22903e+06 123753 71841.6 51622 42478.1 38060.1 28127.9 19962.2 19009.3 13722.9 11498.6 8186.29 7906.67 7406.95 4977.52 4772.89 4683.78 4627.24 4078.64 4000.99 3679.85 3562.33 3480.17 3287.17 2865.23 1510.09 1072.03 841.095
threshold=0.28761028335662786 3.7898998433393323 0.53855593175327787 1.1206165565249917 0.13765218155805142 0.73795260837215337 0.091807528863987659 0.68573988226459925 0.63352344422482598 -0.23393197404107716 0.064841573162460156 0.73167136514852105 0.18075074369223412 0.65160078408621736 0.26997807469762392 0.62823569669521862 0.69173342621112999 -0.050450882388946898 -0.28858022664384236 -0.41885736437657878 0.75079175358430106 0.85171477296949305 1.3562916760338435 -0.78461703757429557 0.32894587705452411 0.33270154349185382 0.69911869987005038 -0.32193460098211807
decision_type=2 2 2 2 2 2 2 2 2 2 2 2 2 2 2 2 2 2 2 2 2 2 2 2 2 2 2 2
left_child=2 3 4 8 9 11 19 15 10 27 -2 23 -11 22 -10 -5 24 -6 -13 -4 -19 -9 -7 -3 -8 -18 -21 -1
right_child=1 5 6 7 17 13 16 21 14 12 -12 18 -14 -15 -16 -17 25 20 -20 26 -22 -23 -24 -25 -26 -27 -28 -29
leaf_value=0.0012784495880813068 -0.4063750444391962 -0.29144516548660232 -0.10598050376156272 -0.14459385619069987 0.2479988429795868 -0.063010806514107898 0.1617185184972286 -0.28093802822215058 -0.50416680647920675 0.2479988429795868 -0.27073007439282892 -0.38458673102344632 0.17215819554869918 -0.14459385619069987 -0.40173081256460635 -0.27073007439282892 0.0012784495880813068 0.34538833836874738 -0.23159971521144254 0.0012784495880813068 0.62646808912954177 -0.40173081256460635 0.0012784495880813068 -0.14459385619069987 0.24192313148702313 0.20014615010371251 -0.10598050376156272 0.091960678803531037
leaf_weight=353 1643 244 582.5 2548 310 1372 2345 802.5 1585.5 4208.5 2561 384.5 1734 370 1468.5 359.5 234.5 6711 1021.5 1484.5 75.5 488 1985.5 1600.5 1026 62 62 163.5
leaf_count=312 1332 222 502 1908 251 1131 1861 636 1304 3528 2018 309 1468 250 1193 340 223 5381 776 1213 70 392 1570 1349 737 56 40 134
internal_value=0.000239443 -0.233498 0.222889 -0.314384 0.273287 -0.100699 0.105025 -0.202722 -0.378963 0.199056 -0.323757 -0.200734 0.216245 -0.01346 -0.454935 -0.144594 0.172158 0.340843 -0.27073 -0.0106212 0.34853 -0.333647 -0.0106212 -0.145262 0.172158 0.0131482 0.00127845 0.00127845
internal_weight=37786 18434 19352 11456 13555.5 6978 5796.5 4198 7258 6459 4204 3250.5 5942.5 3727.5 3054 2907.5 3667.5 7096.5 1406 2129 6786.5 1290.5 3357.5 1844.5 3371 296.5 1546.5 516.5
internal_count=30506 14730 15776 9123 11144 5607 4632 3276 5847 5442 3350 2656 4996 2951 2497 2248 2877 5702 1085 1755 5451 1028 2701 1571 2598 279 1253 446
is_linear=0
shrinkage=0.04


Tree=16
num_leaves=32
num_cat=0
split_feature=5 2 5 15 15 15 15 1 15 2 1 1 2 2 15 1 1 13 0 1 15 15 11 15 15 11 15 6 1 15 28
split_gain=1.13303e+06 122743 71089.6 47556.2 45010.1 34341.6 17846.3 13944.7 12538.1 10144.9 9534.18 7756.16 6092.86 6028.69 5666.5 5637.87 5559.58 5152.07 4084.77 4220.63 3710.8 3529.28 3167.55 2639.7 2238.88 2117.98 2024.3 1513.75 1462.61 2443.07 331.933
threshold=4.7150259485656303 0.24153220711316484 2.655373907566529 0.14112595326690117 0.12199574467041406 0.079517623500857462 0.12738573685344742 0.58804764093025108 -0.076352013542437994 0.33074296641529838 0.63166456861642317 0.61920117609535141 0.1929641986720089 0.19425210699844411 -0.34297954656657414 0.43005727272455491 0.6549577239749137 0.26149852312431254 0.62737043601408649 0.62823569669521862 0.004579086336156001 0.15686373481980859 0.41668968470299012 -0.27855492384049718 0.31181383241639915 0.6170070377021758 -0.36533607234256493 2.5000000000000004 0.50203395461076117 0.27222878332500994 0.081831204363059865
decision_type=2 2 2 2 2 2 2 2 2 2 2 2 2 2 2 2 2 2 2 2 2 2 2 2 2 2 2 2 2 2 2
left_child=2 4 6 8 7 11 20 12 23 28 -10 22 -2 17 -9 -11 21 -6 19 -8 25 -7 -3 -4 -15 -1 -13 -22 -5 -18 -20
right_child=1 5 3 9 13 16 18 14 10 15 -12 26 -14 24 -16 -17 29 -19 30 -21 27 -23 -24 -25 -26 -27 -28 -29 -30 -31 -32
leaf_value=-0.47101715127852389 0.24759311440901743 -0.024863908517122613 -0.47101715127852389 0.056198527535344905 0.32145334698985645 0.062493955128072189 -0.24025155035575554 -0.024863908517122613 -0.20039050234895908 -0.094097320352934471 -0.29889483057690752 -0.38922553079175848 0.14277545036965966 0.23279821559092045 0.11756103194989724 -0.18582139237475062 -0.065511816453636587 0.4428122220058755 -0.39833581168885629 -0.38410868505606127 -0.47101715127852389 0.15191192962422159 -0.17785697623864444 -0.34702249669525631 0.31607986766730523 -0.61886383810982493 -0.17785697623864444 -0.39833581168885629 -0.065511816453636587 0.10842803997998036 -0.38410868505606127
leaf_weight=1264 3052.5 1368 379 583 5439.5 939 1712.5 269.5 2918.5 2627.5 975 72.5 1252.5 1646 2073.5 1812.5 346.5 625.5 297 404 172 2856 114 1020 756.5 174 753 1144 216.5 156.5 365.5
leaf_count=1048 2402 1112 317 432 4362 762 1301 244 2227 1927 897 67 975 1364 1959 1512 330 475 232 370 144 2223 75 816 589 117 706 900 190 149 282
internal_value=0.000333049 0.188704 -0.254357 -0.193362 0.251562 0.0448623 -0.370449 0.173653 -0.277933 -0.107929 -0.241006 -0.0796072 0.217105 0.312724 0.111689 -0.131547 0.111689 0.333981 -0.298895 -0.298895 -0.442631 0.117561 -0.0248639 -0.380665 0.259043 -0.48725 -0.177857 -0.398336 0.0232265 0.0232265 -0.398336
internal_weight=37786 21721 16065 10532 15115.5 6605.5 5533 6648 5292.5 5239.5 3893.5 2307.5 4305 8467.5 2343 4440 4298 6065 2779 2116.5 2754 3795 1482 1399 2402.5 1438 825.5 1316 799.5 503 662.5
internal_count=30506 17794 12712 8318 12370 5424 4394 5580 4257 4061 3124 1960 3377 6790 2203 3439 3464 4837 2185 1671 2209 2985 1187 1133 1953 1165 773 1044 622 479 514
is_linear=0
shrinkage=0.04


Tree=17
num_leaves=30
num_cat=0
split_feature=2 3 7 17 15 17 5 1 15 15 2 1 0 7 1 17 1 13 17 17 2 17 11 17 7 15 17 17 13
split_gain=1.04791e+06 113513 68471.7 50855.8 45382.4 26526.7 18926.5 15655.4 15605.4 9867.73 8770.38 8623.11 8317.02 6262.37 6193.76 5844.01 5412.43 4714.49 3771.97 3633.4 4363.59 3230.91 2878.21 1805.05 1777.78 1739.93 1499.57 994.155 563.293
threshold=0.31915045106042489 0.58290788905921354 0.63352344422482598 1.3703615627066148 0.1394700227222074 0.49732263726779852 3.5225123831688689 0.63784228753395911 0.1084980957278326 -0.053665671683310399 0.20624439015302878 0.67155163315448752 0.23386555386115224 0.7853125508160812 0.78733835722711587 -2.0043162196163631 0.54020493817955828 0.29808638458057851 1.2697926139726825 1.6128225827400546 0.27364720677753251 2.2013560491023543 0.40589609647623459 2.8147681850050614 0.69911869987005038 -0.18857758019217305 1.9626972213386806 -0.14972808031912696 -0.097327557397035691
decision_type=2 2 2 2 2 2 2 2 2 2 2 2 2 2 2 2 2 2 2 2 2 2 2 2 2 2 2 2 2
left_child=1 4 3 6 7 16 9 10 22 -2 -1 -8 26 19 17 -9 27 -6 20 -10 -7 -14 25 -15 -18 -4 -5 -3 -24
right_child=2 5 8 12 14 18 11 15 13 -11 -12 -13 21 23 -16 -17 24 -19 -20 -21 -22 -23 28 -25 -26 -27 -28 -29 -30
leaf_value=0.2336064899927478 -0.41619637107316232 -0.073384856280114 -0.51859613255471426 0.001877274283663171 0.30326771494559063 0.098567819640883472 -0.14069048516655205 -0.074365281727597057 -0.29504976470615807 -0.266970991680473 0.11239051101463073 -0.266970991680473 -0.12372067379071103 -0.38700174066644416 0.099229787363825095 0.099229787363825095 -0.12645545252570969 0.42354230372158286 0.099229787363825095 -0.1790604611966049 -0.013305956857738428 -0.031687061900989549 -0.62120871186805371 -0.19730669429624548 -0.29504976470615807 -0.41619637107316232 0.099229787363825095 -0.013305956857738428 -0.51859613255471426
leaf_weight=4188 921.5 440.5 271 336.5 7279 937.5 2767.5 163 1122 3087.5 1238 752.5 1533 1061 161.5 1847 1008 563 2252.5 705 760.5 1014.5 141 87.5 53.5 1916 390.5 686.5 100.5
leaf_count=3331 747 345 234 280 5844 757 2195 163 877 2430 1024 713 1192 853 160 1756 896 437 1707 525 628 767 93 68 38 1568 302 509 67
internal_value=0.000279487 0.182838 -0.242776 -0.184623 0.240688 0.0373434 -0.241856 0.169533 -0.359025 -0.301287 0.205955 -0.174157 -0.0530211 -0.301287 0.306792 0.0992298 -0.0743653 0.311911 0.0992298 -0.266971 0.0396015 -0.0870762 -0.434351 -0.372582 -0.139176 -0.419795 0.0662975 -0.013306 -0.565797
internal_weight=37786 21578.5 16207.5 10803.5 15439.5 6139 7529 7436 5404 4009 5426 3520 3274.5 2975.5 8003.5 2010 2188.5 7842 3950.5 1827 1698 2547.5 2428.5 1148.5 1061.5 2187 727 1127 241.5
internal_count=30506 17595 12911 8626 12715 4880 6085 6274 4285 3177 4355 2908 2541 2323 6441 1919 1788 6281 3092 1402 1385 1959 1962 921 934 1802 582 854 160
is_linear=0
shrinkage=0.04


Tree=18
num_leaves=30
num_cat=0
split_feature=2 5 2 24 24 24 24 5 5 1 3 14 1 24 5 24 14 0 11 0 24 24 14 1 1 14 5 11 24
split_gain=967655 98446.8 55794.4 36969.4 33859.2 31851.4 21395.2 16652.1 16162.3 8213.58 8031.64 6159.34 5739.06 5002.08 4729.76 4376.19 3873.22 4063.02 3604.34 3499.52 3343.54 3223.42 2877.18 2021.72 2527.06 1677.94 1622.11 1151.3 541.921
threshold=0.28761028335662786 3.5225123831688689 0.19999752681583002 0.070673870973088318 0.045904864445907606 0.051601855441137205 0.077956681538256259 2.4046183566871737 4.6413458084734707 0.61920117609535141 0.6188511409394839 -0.050450882388946898 0.34043070587215341 -0.2729325217297901 5.6695075227732197 0.24429732796394718 -0.071560018118319482 0.38075064669698738 0.4287717493286276 0.62737043601408649 0.7213346062192264 -0.23816944660227907 -0.045378410010321245 0.36478376649969796 0.68785019687463878 0.0066284772358767008 5.6265409168560181 0.073065233601478166 0.41400150063810781
decision_type=2 2 2 2 2 2 2 2 2 2 2 2 2 2 2 2 2 2 2 2 2 2 2 2 2 2 2 2 2
left_child=2 4 6 14 16 9 13 19 12 18 24 28 -5 -1 21 -9 27 -18 -4 -6 -13 -3 -10 -12 -7 -15 -11 -2 -8
right_child=1 3 5 8 7 10 11 15 22 26 23 20 -14 25 -16 -17 17 -19 -20 -21 -22 -23 -24 -25 -26 -27 -28 -29 -30
leaf_value=0.053605746018525975 -0.43195074033739284 -0.32518089125717814 0.053605746018525975 -0.032458063670568589 -0.29013684559564967 0.18298969637919155 0.18298969637919155 -0.21717040856761427 -0.032458063670568589 -0.20072626566312102 0.14295532158780971 0.30472474430912994 -0.1424652785222239 0.18298969637919155 -0.097253434275687042 -0.1424652785222239 -0.32518089125717814 -0.41929402970966317 -0.097253434275687042 -0.38704837932962549 0.6035812016115244 -0.21717040856761427 0.064692937379020099 0.064692937379020099 0.064692937379020099 0.22339283706351509 -0.097253434275687042 -0.56075791735715519 0.30472474430912994
leaf_weight=381.5 212.5 308 1472.5 1288.5 1985.5 3324 475 2476.5 239.5 242.5 860 6586 1846.5 1635 288 1532 1377.5 1584 101 856 60.5 2333.5 1862 1019 336 2149.5 669.5 244 40
leaf_count=328 206 254 1170 959 1570 2693 374 1977 198 216 624 5274 1475 1396 253 1184 1117 1267 66 673 54 1897 1534 804 326 1791 631 166 29
internal_value=0.000355309 -0.207043 0.197916 -0.103385 -0.289478 0.117216 0.255082 -0.238157 -0.0397229 -0.00174885 0.170598 0.297014 -0.0972574 0.18299 -0.21717 -0.21717 -0.392315 -0.375539 0.0536057 -0.319352 0.30746 -0.21717 0.0461045 0.0975788 0.18299 0.18299 -0.0972534 -0.500973 0.18299
internal_weight=37786 18434 19352 8166 10268 8024.5 11327.5 6850 5236.5 2485.5 5539 7161.5 3135 4166 2929.5 4008.5 3418 2961.5 1573.5 2841.5 6646.5 2641.5 2101.5 1879 3660 3784.5 912 456.5 515
internal_count=30506 14730 15776 6570 8160 6530 9246 5404 4166 2083 4447 5731 2434 3515 2404 3161 2756 2384 1236 2243 5328 2151 1732 1428 3019 3187 847 372 403
is_linear=0
shrinkage=0.04


Tree=19
num_leaves=32
num_cat=0
split_feature=0 3 7 17 15 17 17 0 1 17 0 1 7 17 2 13 17 1 7 17 13 1 17 17 17 1 17 2 17 1 11
split_gain=893831 83228.6 67323.7 45316.4 35682.6 26082.5 17115.5 14842.6 12232.4 9075.72 7895.7 7309.66 7036.98 5056.88 5985.47 4982.06 4924.04 3881.99 3658.99 3462.4 3327.16 3238.74 3073.29 2984.33 2385.99 1914.94 1832.76 1504.76 1332.31 1137.91 794.061
threshold=0.20468611602389589 0.55640361875160493 0.60402344704743149 1.3060039792006275 0.1394700227222074 0.49732263726779852 0.78021450115140434 0.26015982496726148 0.49009082102708296 0.19915833788837248 0.25000042019743945 0.60745901982514017 0.76641064529403768 -2.0043162196163631 0.28761028335662786 0.29808638458057851 0.52129215657442518 0.80205010484082062 0.72461672654929432 -0.71845079985859661 -0.0061522447968474494 0.71446241633634455 3.9176840676814693 -0.19086532514830071 2.0968073299075773 0.45217720634723607 2.2013560491023543 0.31275483132875465 2.2842860893631052 0.28467706232624324 0.29731090660587839
decision_type=2 2 2 2 2 2 2 2 2 2 2 2 2 2 2 2 2 2 2 2 2 2 2 2 2 2 2 2 2 2 2
left_child=1 4 3 7 8 11 18 16 20 -9 28 19 21 -10 25 17 -2 -6 23 -3 -1 -8 -17 -4 -16 -7 -12 -13 -5 -14 -20
right_child=2 5 6 10 15 14 12 9 13 -11 26 27 29 -15 24 22 -18 -19 30 -21 -22 -23 -24 -25 -26 -27 -28 -29 -30 -31 -32
leaf_value=0.16169520420043237 -0.1861682368434471 -0.14006358430715307 -0.42642948288074356 0.018721346040393421 0.28394388369080875 0.16169520420043237 -0.21055058622304182 -0.32806533194409832 0.0045947406819153505 -0.21055058622304182 -0.079039840305733633 -0.14006358430715307 -0.2711696024658472 0.1257208355015112 0.050448086864628587 0.37815804986880447 -0.079039840305733633 0.1257208355015112 -0.42642948288074356 0.02706982787994644 0.24765765445923305 -0.33346230876931549 0.72143076680721741 -0.33346230876931549 0.1257208355015112 0.1257208355015112 -0.019152458872879908 -0.1861682368434471 0.10933069286907358 -0.3597014397368799 -0.52302815139018211
leaf_weight=1079 1587 186 573 742 6806.5 1855.5 1737 1812.5 196.5 2509.5 1397.5 697 334 3505.5 1110 465 1153.5 115 1473.5 1346.5 2179 183 46 1032.5 331.5 1000.5 818 182.5 399.5 791 140.5
leaf_count=848 1291 164 458 584 5463 1379 1303 1464 196 1973 1081 642 262 3164 930 355 931 115 1227 1037 1665 177 44 800 259 862 616 171 301 647 97
internal_value=0.00047679 0.173462 -0.218315 -0.156007 0.227701 0.0571117 -0.321943 -0.213518 0.162608 -0.253928 -0.0350072 -0.0481557 -0.253928 0.116195 0.116195 0.288651 -0.140447 0.279736 -0.386256 0.00459474 0.219199 -0.210551 0.409274 -0.343384 0.0504481 0.125721 -0.0790398 -0.140064 0.0504481 -0.333462 -0.428863
internal_weight=37786 21102 16684 10419.5 14392.5 6709.5 6264.5 7062.5 6960 4322 3357 2412 3045 3702 4297.5 7432.5 2740.5 6921.5 3219.5 1532.5 3258 1920 511 1605.5 1441.5 2856 2215.5 879.5 1141.5 1125 1614
internal_count=30506 17294 13212 8241 11850 5444 4971 5659 5873 3437 2582 2014 2389 3360 3430 5977 2222 5578 2582 1201 2513 1480 399 1258 1189 2241 1697 813 885 909 1324
is_linear=0
shrinkage=0.04


Tree=20
num_leaves=28
num_cat=0
split_feature=2 5 2 24 17 24 24 5 17 7 13 7 24 17 17 13 17 17 17 7 3 24 2 17 24 26 24
split_gain=825353 83729.7 47242.4 36267.4 26771 23044.4 22504.4 16443.2 7849.23 7259.98 6293.35 6178.18 5969.74 6353.91 6056.78 5405.81 4677.53 4351.73 3588.31 2941.89 2789.96 2761.42 1870.75 1653.66 1507.04 1387.52 11.3569
threshold=0.28761028335662786 3.2630491030479805 0.21549338867333903 0.070673870973088318 0.81200669459015695 0.051601855441137205 0.077956681538256259 4.6413458084734707 1.767396593278207 0.7590843394262109 0.08472221702684371 0.71133910298290337 -0.2729325217297901 1.4317170263253984 -0.13408086109484799 -0.21694893634533 1.712179392244555 -0.74943025732837976 1.712179392244555 0.69911869987005038 0.59374184198727464 0.7213346062192264 0.16049456613087718 2.4025786633524304 0.21690540222120883 0.096244228195590059 0.36604495517239638
decision_type=2 2 2 2 2 2 2 2 2 2 2 2 2 2 2 2 2 2 2 2 2 2 2 2 2 2 2
left_child=2 4 6 17 11 15 12 8 -5 24 18 14 -1 20 -2 -4 -9 -3 -8 -17 -7 -12 -14 -11 -6 -13 -15
right_child=1 3 5 7 9 13 10 16 -10 23 21 25 22 26 -16 19 -18 -19 -20 -21 -22 -23 -24 -25 -26 -27 -28
leaf_value=0.015148212015317401 -0.38184114155779297 -0.32084171666545608 -0.21224118530191369 -0.13557416230263469 -0.21224118530191369 0.14178191226959094 0.20553140680534218 -0.0011677029520605091 -0.013597153805993991 -0.33790417771254161 0.29532710539511353 -0.4436452653949714 0.20553140680534218 0.17129605824204461 -0.26606088129360883 0.0092989096634629471 0.12458545926856603 -0.21224118530191369 0.29532710539511353 -0.21224118530191369 0.054844834731896788 0.54766426516366529 0.17129605824204461 -0.21224118530191369 -0.14715983528974172 -0.38184114155779297 0.20553140680534218
leaf_weight=430.5 1173.5 591 162 2663 1298 1130 2834.5 1382 1236 914.5 4808 852 2478 1178 1891.5 1735 719.5 2781.5 559 64.5 1238.5 69.5 1886.5 164 1974 793.5 778
leaf_count=372 957 525 139 2109 1024 972 2356 1166 927 735 3767 700 2092 931 1490 1460 566 2243 432 44 1000 61 1578 128 1519 641 572
internal_value=0.000430557 -0.191112 0.182887 -0.10729 -0.277816 0.0927779 0.226237 -0.0482988 -0.0969105 -0.212241 0.266209 -0.344023 0.157279 0.144357 -0.310408 -0.0209366 0.0418899 -0.212241 0.224345 -0.000810078 0.096331 0.295327 0.171296 -0.316782 -0.212241 -0.406597 0.171296
internal_weight=37786 18434 19352 9373 9061 6286 13066 6000.5 3899 4350.5 8271 4710.5 4795 4324.5 3065 1961.5 2101.5 3372.5 3393.5 1799.5 2368.5 4877.5 4364.5 1078.5 3272 1645.5 1956
internal_count=30506 14730 15776 7536 7194 5118 10658 4768 3036 3406 6616 3788 4042 3475 2447 1643 1732 2768 2788 1504 1972 3828 3670 863 2543 1341 1503
is_linear=0
shrinkage=0.04


Tree=21
num_leaves=28
num_cat=0
split_feature=3 7 2 17 15 17 0 17 0 17 7 17 14 0 15 14 15 21 17 15 0 17 7 0 7 17 12
split_gain=761974 71867.8 48724.4 42795.5 23893 22910.5 17255.5 14620.7 11933.6 8379.35 6229.66 5771.95 5534.5 4500.71 4185.3 3884.57 3601.42 3521.77 3317.22 3277.39 2431.8 2103.05 1988.33 1721.04 1474.77 968.655 575.443
threshold=0.66059375023890288 0.60402344704743149 0.21549338867333903 0.5447659569502169 0.12199574467041406 0.62020072609354726 0.25000042019743945 0.78021450115140434 0.25000042019743945 1.8784073548632969 0.73881873265011022 -2.0043162196163631 -0.061422725953027398 0.17553037644822322 -0.068020193403657989 -0.059711424269219847 -0.32193460098211807 -0.77141395682378977 -1.1664622724121825 -0.18857758019217305 0.43812368878260582 1.804002390977917 0.74636661841929153 0.17680521659806828 0.69911869987005038 1.1532515872528253 1.4784228038316527
decision_type=2 2 2 2 2 2 2 2 2 2 2 2 2 2 2 2 2 2 2 2 2 2 2 2 2 2 2
left_child=2 3 4 8 11 18 25 19 16 -8 20 -1 -7 -14 -10 -6 -2 -17 -4 26 -9 -12 -21 -13 -20 -5 -3
right_child=1 7 5 6 15 12 9 10 14 -11 21 23 13 -15 -16 17 -18 -19 24 22 -22 -23 -24 -25 -26 -27 -28
leaf_value=-0.005413304572769193 -0.34017760831930871 -0.44249243158273793 -0.13059902938285686 -0.050052880985497004 0.16335157238363202 -0.005413304572769193 -0.15675608953992176 -0.15675608953992176 -0.34017760831930871 -0.031262081465424058 -0.333055424477952 0.16335157238363202 0.16335157238363202 0.068785391819687888 -0.23808246710617148 0.16335157238363202 -0.13059902938285686 0.27690201949684196 -0.005413304572769193 -0.34017760831930871 -0.24703134479320898 -0.24703134479320898 -0.39065322094023713 0.068785391819687888 -0.13059902938285686 -0.005413304572769193 -0.60284814994506097
leaf_weight=167.5 111 392 214.5 1109 203 147.5 2870.5 1083.5 997 1210.5 917 5402.5 3007 832.5 1817 334.5 1787 6768.5 2424.5 1569.5 613 461 1257.5 190 74.5 1783 41
leaf_count=167 96 318 208 900 160 118 2253 827 811 916 744 4511 2438 674 1443 247 1455 5425 2054 1239 480 366 1031 148 46 1400 31
internal_value=0.000440482 -0.187689 0.171943 -0.128869 0.216916 0.0842414 -0.0659381 -0.296185 -0.221989 -0.119536 -0.23358 0.155987 0.145259 0.155461 -0.274273 0.264947 -0.144454 0.270554 -0.0054133 -0.355212 -0.182224 -0.296774 -0.340178 0.163352 -0.0054133 -0.0054133 -0.457894
internal_weight=37786 18019.5 19766.5 11685 13066 6700.5 6973 6334.5 4712 4081 3074.5 5760 3987 3839.5 2814 7306 1898 7103 2713.5 3260 1696.5 1378 2827 5592.5 2499 2892 433
internal_count=30506 14310 16196 9274 10658 5538 5469 5036 3805 3169 2417 4826 3230 3112 2254 5832 1551 5672 2308 2619 1307 1110 2270 4659 2100 2300 349
is_linear=0
shrinkage=0.04


Tree=22
num_leaves=28
num_cat=0
split_feature=2 2 17 15 0 24 7 13 2 7 14 15 13 11 2 7 15 17 17 15 24 0 17 17 13 17 17
split_gain=704665 80934.1 47557.8 28888.4 24944.1 22972.4 13129.7 10355 9991.37 7538.84 5891.35 5094.76 4368.46 3641.38 3360.1 3157.72 3097.71 2651.94 2148.4 2126.86 1850.2 1218.35 1082.84 978.542 592.908 561.785 496.917
threshold=0.32667824515394023 0.24153220711316484 1.3703615627066148 0.12199574467041406 0.37706932926117182 0.025256178872172606 0.64632342013376542 -0.1456520963418648 0.18075074369223412 0.64632342013376542 -0.050450882388946898 -0.18857758019217305 0.29808638458057851 0.6170070377021758 0.19424783854817942 0.83841558753277423 0.15164636600305778 3.9176840676814693 -0.54224954154580873 0.051480308616468809 -0.0023683628560182495 0.19492144611080378 1.8222133299481589 1.696113908756564 -0.13789323587579572 -1.4336289329323291 3.0692242714781242
decision_type=2 2 2 2 2 2 2 2 2 2 2 2 2 2 2 2 2 2 2 2 2 2 2 2 2 2 2
left_child=1 3 4 8 7 18 -4 -2 11 -9 23 -1 14 20 -5 22 -12 -14 25 -10 -6 -20 -8 -7 -15 -3 -17
right_child=2 5 6 12 13 10 15 9 19 -11 16 -13 17 24 -16 26 -18 -19 21 -21 -22 -23 -24 -25 -26 -27 -28
leaf_value=0.077121904797286839 -0.32922056686543627 -0.16881345656009492 -0.087228670878676043 0.25684555796929914 -0.38147017884087731 -0.057302177633962004 -0.22257353031205512 -0.16881345656009492 0.045494783009939643 -0.28362649173134769 0.041135862116972656 0.18876463863469525 0.32964791475710586 -0.55450767636560205 0.20019246926610154 -0.28362649173134769 0.11330537881178444 0.65681783192127352 -0.057302177633962004 0.12524098119570529 -0.32922056686543627 -0.087228670878676043 -0.13711185508322518 0.041135862116972656 -0.42321111760302321 -0.11811800980292173 -0.13878413893599625
leaf_weight=430.5 586.5 156.5 3204.5 5483.5 1222.5 464.5 396.5 5386 1653.5 1103 1342.5 3772.5 522 114 2419 365 3272.5 43 788 791.5 2546 483 595.5 57 115.5 423.5 48
leaf_count=368 477 152 2488 4442 1006 379 308 4371 1399 870 1107 3167 395 77 1912 292 2585 41 655 646 2035 377 442 42 79 356 38
internal_value=0.000658852 0.146163 -0.204407 0.198204 -0.249348 0.0335834 -0.0964387 -0.20421 0.135788 -0.20421 0.0771219 0.173287 0.247203 -0.329221 0.239509 -0.20421 0.0771219 0.354726 -0.0872287 0.0771219 -0.329221 -0.0580985 -0.171305 -0.0573022 -0.488776 -0.151022 -0.283626
internal_weight=37786 22103 15683 15115.5 11073.5 6987.5 4609.5 7075.5 6648 6489 5136.5 4203 8467.5 3998 7902.5 1405 4615 565 1851 2445 3768.5 1271 992 521.5 229.5 580 413
internal_count=30506 18023 12483 12370 8915 5653 3568 5718 5580 5241 4113 3535 6790 3197 6354 1080 3692 436 1540 2045 3041 1032 750 421 156 508 330
is_linear=0
shrinkage=0.04


Tree=23
num_leaves=27
num_cat=0
split_feature=5 5 17 15 5 24 5 1 1 11 13 24 14 13 11 13 15 17 0 1 1 13 11 5 14 13
split_gain=648249 68009.1 43635.4 26438.4 25460.6 21788.4 15712.5 14755.3 10224.7 9547.58 4732.6 4630.76 4566.51 4372.1 4098.37 3803.07 2792.87 2679.91 2670.77 2167.42 1113.17 1046.91 856.256 643.687 547.821 244.151
threshold=4.7150259485656303 6.553272057202598 1.3562916760338435 0.1394700227222074 2.9099988362331377 0.070673870973088318 2.4046183566871737 0.67155163315448752 0.58804764093025108 0.29423287321422648 0.041528942615251058 -0.2729325217297901 -0.056185152345474089 0.0074644192033803012 0.6170070377021758 0.29808638458057851 0.33666819420133159 -0.71845079985859661 0.62737043601408649 0.7406311859524477 0.7406311859524477 0.12445432415810097 0.6170070377021758 1.444070982449255 -0.065476073268391791 -0.13789323587579572
decision_type=2 2 2 2 2 2 2 2 2 2 2 2 2 2 2 2 2 2 2 2 2 2 2 2 2 2
left_child=2 5 4 8 14 17 23 9 10 -6 -3 -10 21 -5 18 -15 -14 -2 -1 24 -19 -7 -9 -4 -8 -16
right_child=1 3 6 13 7 12 19 22 11 -11 -12 -13 16 15 25 -17 -18 20 -20 -21 -22 -23 -24 -25 -26 -27
leaf_value=-0.29781659017691003 -0.13024765450849027 0.13868975184076321 -0.28141688693765865 0.13868975184076321 -0.13024765450849027 -0.057107275469484124 -0.13024765450849027 -0.29781659017691003 -0.057107275469484124 -0.29781659017691003 0.22065291861686651 0.091563098454251701 0.082572411252159958 0.24297314046158328 -0.51742955491369536 0.35405079799628603 0.13868975184076321 -0.057107275469484124 -0.36569637686591649 -0.21701591428979383 -0.13024765450849027 0.082572411252159958 -0.45975972946390065 -0.21701591428979383 -0.057107275469484124 -0.45975972946390065
leaf_weight=3727.5 424.5 2704 250.5 407 4437.5 312.5 83 1339.5 357.5 558 1935.5 2087.5 3058 6682.5 128.5 533.5 1188.5 1653.5 943 135 317 59.5 37 938.5 3360 127
leaf_count=3016 380 2169 193 334 3450 246 60 1244 323 377 1519 1988 2503 5398 87 418 878 1286 756 133 311 41 24 737 2548 87
internal_value=0.000807817 0.143291 -0.191839 0.192168 -0.234661 0.0407935 -0.0903446 -0.181854 0.13653 -0.149892 0.17289 0.0915631 0.0915631 0.243871 -0.30296 0.251193 0.0915631 -0.0571073 -0.297817 -0.0571073 -0.0571073 -0.0485561 -0.297817 -0.217016 -0.0571073 -0.45976
internal_weight=37786 21721 16065 14707.5 11298 7013.5 4767 6372 7084.5 4995.5 4639.5 2445 4618.5 7623 4926 7216 4246.5 2395 4670.5 3578 1970.5 372 1376.5 1189 3443 255.5
internal_count=30506 17794 12712 12149 9041 5645 3671 5095 5999 3827 3688 2311 3668 6150 3946 5816 3381 1977 3772 2741 1597 287 1268 930 2608 174
is_linear=0
shrinkage=0.04


Tree=24
num_leaves=29
num_cat=0
split_feature=2 0 2 17 17 17 7 1 24 1 1 17 11 0 21 3 11 17 14 7 1 19 7 17 24 17 12 17
split_gain=599512 61073.7 34186.9 24948.8 23981.8 22212.8 15383 13625.3 11067.2 9365.25 10290.2 6245.81 6157.4 4340.18 4333.48 4048.5 3228.49 3060.26 2817.31 2550.77 2533.84 1832.36 1625.24 1502.15 1165.21 1047.27 358.737 333.411
threshold=0.28761028335662786 0.28396216632589871 0.19425210699844411 1.3562916760338435 0.23563851420714294 1.0747862598591029 0.73881873265011022 0.64513188230642127 0.09826330425989746 0.62823569669521862 0.67155163315448752 -0.28858022664384236 0.23404310563072853 0.23021619830231685 -0.72814752306432862 0.62194435314564267 0.6170070377021758 -0.78461703757429557 -0.050450882388946898 0.63900567133262054 0.29573113239265109 0.027565882328042902 0.64632342013376542 -2.0043162196163631 0.28971907322742801 2.4025786633524304 1.4181228263961783 0.13771611776994958
decision_type=2 2 2 2 2 2 2 2 2 2 2 2 2 2 2 2 2 2 2 2 2 2 2 2 2 2 2 2
left_child=2 3 8 10 16 7 9 12 17 -6 11 -2 -4 21 24 -7 19 -1 -16 -3 -8 -5 -15 -9 -10 -17 -18 -19
right_child=1 4 5 13 6 15 20 23 14 -11 -12 -13 -14 22 18 25 26 27 -20 -21 -22 -23 -24 -25 -26 -27 -28 -29
leaf_value=0.10037367947584518 -0.205697393471928 -0.27285824788708013 0.10037367947584518 0.10037367947584518 -0.12778987180396856 0.17058111450217756 -0.21284303374512545 -0.205697393471928 0.17058111450217756 -0.26755612239772364 -0.23241115948484425 -0.078468309749818582 -0.054919338406974959 -0.0065313698904191624 0.17058111450217756 0.10037367947584518 -0.42982840674121942 0.15391449234897731 0.26351531640120757 -0.34823161913582612 -0.31661206262346703 0.00089183728167129418 -0.078468309749818582 -0.060987247607051868 0.26901756564458867 0.17058111450217756 -0.55486386298132595 0.17058111450217756
leaf_weight=535 741.5 1632 3094.5 957.5 4332.5 2494 534.5 89 1096.5 916.5 1186.5 3689.5 470.5 975.5 291.5 843 215.5 2069 4739.5 1293 1289.5 412 210.5 1168.5 194 328.5 47.5 1938.5
leaf_count=494 590 1329 2530 748 3261 2028 413 88 846 841 1111 2884 315 761 239 635 145 1732 3813 1081 1051 349 133 1096 154 225 33 1581
internal_value=0.00100987 -0.162237 0.156513 -0.0806539 -0.227216 0.0963613 -0.186152 0.0399433 0.203507 -0.151367 -0.12779 -0.0997669 0.0798754 0.0229594 0.238883 0.170581 -0.318307 0.170581 0.255664 -0.306195 -0.286227 0.0714679 -0.0330514 -0.0732548 0.173436 0.100374 -0.452737 0.170581
internal_weight=37786 18434 19352 8173 10261 8488 7073 4822.5 10864 5249 5617.5 4431 3565 2555.5 6321.5 3665.5 3188 4542.5 5031 2925 1824 1369.5 1186 1257.5 1290.5 1171.5 263 4007.5
internal_count=30506 14730 15776 6576 8154 6917 5566 4029 8859 4102 4585 3474 2845 1991 5052 2888 2588 3807 4052 2410 1464 1097 894 1184 1000 860 178 3313
is_linear=0
shrinkage=0.04


Tree=25
num_leaves=31
num_cat=0
split_feature=2 2 17 24 7 24 1 7 17 1 13 1 1 22 24 0 14 1 7 12 17 0 24 13 1 1 22 17 24 24
split_gain=554837 63513.9 38791.7 20858.6 19818.1 18655.5 13970.4 10467.6 10123.8 8660.46 5410.16 5602.79 5034.68 10291 3004.21 5087.84 2994.97 2297.55 2119.82 1645.38 1397.59 1173.31 1134.75 999.573 555.466 548.168 455.669 251.143 201.85 14.6577
threshold=0.32667824515394023 0.24153220711316484 1.3703615627066148 0.072353351049824918 0.66147797637651207 0.025256178872172606 0.67155163315448752 0.68048310509411436 -0.28858022664384236 0.61632899786518103 0.083714003791614616 0.26512739693317317 0.61361426575977307 -0.38866081424425453 0.7213346062192264 0.16905244620540352 -0.077947825977003837 0.52757230137232691 0.86347367324401303 1.4784228038316527 0.79060578752121358 0.19492144611080378 0.16045121238024376 0.083714003791614616 0.33303394794497093 0.71446241633634455 -0.75964128396013819 -0.54224954154580873 0.21882554112526106 0.13237286772132292
decision_type=2 2 2 2 2 2 2 2 2 2 2 2 2 2 2 2 2 2 2 2 2 2 2 2 2 2 2 2 2 2
left_child=1 3 4 9 6 17 8 28 -2 23 11 -5 15 -11 -12 -7 26 21 25 -18 -8 -3 -14 -1 -20 -9 -6 -19 29 -4
right_child=2 5 7 10 16 12 20 18 -10 13 14 -13 22 -15 -16 -17 19 27 24 -21 -22 -23 -24 -25 -26 -27 -28 -29 -30 -31
leaf_value=0.14163747343341268 -0.26913908783388812 -0.018729236496245492 -0.086924915045206941 0.23597606407222532 -0.48890028699936056 0.14163747343341268 -0.28878662483490158 -0.15463242940788036 -0.13299648097576575 0.13205632335642725 0.23597606407222532 0.15282815333061486 -0.06402027294579965 -0.018729236496245492 0.48039087845979089 0.052283008706413878 -0.28878662483490158 -0.17361649218389325 -0.20798247076562956 -0.41038084883150527 -0.20418442815887936 -0.078502791748978243 0.027890602835626291 0.18875517237811257 -0.28878662483490158 -0.28813660065258989 -0.41038084883150527 -0.078502791748978243 -0.042154864916071608 -0.066537432116313924
leaf_weight=2558.5 1063 519 66 601.5 123 1678.5 1332 648 4919.5 1027.5 5677.5 3359.5 436 892 80.5 2598.5 2936 386.5 139 147.5 314.5 327 423.5 918.5 211.5 53.5 238 618.5 2836 655.5
leaf_count=2018 847 411 50 512 87 1299 1239 504 3794 932 4472 2761 407 889 71 2006 2345 344 108 108 296 244 401 715 174 51 199 541 2165 516
internal_value=0.000986237 0.130098 -0.180978 0.1762 -0.221566 0.0303676 -0.1856 -0.0834663 -0.157194 0.113133 0.211214 0.17521 0.0696026 0.0696026 0.235976 0.0873551 -0.301211 -0.0785028 -0.205103 -0.288787 -0.288787 -0.0125734 -0.0187292 0.152828 -0.285481 -0.164882 -0.410381 -0.0785028 -0.0785028 -0.0785028
internal_weight=37786 22103 15683 15115.5 11073.5 6987.5 7629 4609.5 5982.5 5396.5 9719 3961 5136.5 1919.5 5758 4277 3444.5 1851 1052 3083.5 1646.5 846 859.5 3477 350.5 701.5 361 1005 3557.5 721.5
internal_count=30506 18023 12483 12370 8915 5653 6176 3568 4641 4554 7816 3273 4113 1821 4543 3305 2739 1540 837 2453 1535 655 808 2733 282 555 286 885 2731 566
is_linear=0
shrinkage=0.04


Tree=26
num_leaves=29
num_cat=0
split_feature=3 0 3 24 24 24 24 14 6 14 24 1 1 14 3 21 12 0 14 14 16 1 1 24 1 24 24 24
split_gain=513800 48894.8 32699.4 27573.5 17460.4 13694.2 11642.1 7693.13 6283.2 5806 5719.86 5425.89 5470.96 4321.93 3689.31 3081.47 2574.38 2449.76 2221.4 1180.04 1086.87 997.433 422.979 419.187 194.67 163.915 92.5697 28.0452
threshold=0.66059375023890288 0.33337907997085597 0.5134049736790951 0.057518108087421756 0.070673870973088318 0.09826330425989746 0.045904864445907606 -0.065476073268391791 2.5000000000000004 -0.061422725953027398 -0.2729325217297901 0.64107325454604802 0.68785019687463878 -0.044280596545879444 0.60000547136255877 -0.72814752306432862 1.2417960685193405 0.62737043601408649 -0.080754768971827789 -0.10170465646043168 0.12764159982158971 0.61632899786518103 0.59762460142271812 1.0000000180025095e-35 0.49727106758360751 -0.29174193614185018 0.093140088517248809 0.45872062275592523
decision_type=2 2 2 2 2 2 2 2 2 2 2 2 2 2 2 2 2 2 2 2 2 2 2 2 2 2 2 2
left_child=2 3 5 12 18 10 16 -5 -9 24 25 17 -2 27 -11 -15 22 -8 23 -12 -18 -20 -3 -4 -6 -1 -13 -7
right_child=1 6 4 7 9 13 11 8 -10 14 19 26 -14 15 -16 -17 20 -19 21 -21 -22 -23 -24 -25 -26 -27 -28 -29
leaf_value=-0.012278700463394512 -0.18870376105629036 -0.27222841820962013 -0.16568526047028745 -0.18870376105629036 0.045282657296805154 0.1438959854815339 -0.18870376105629036 -0.18638429407898735 -0.031167544253925279 0.1438959854815339 0.045282657296805154 -0.28691402962466422 -0.28691402962466422 0.16950400215242326 0.084052332291748688 0.23912145672808444 -0.42354424353385173 -0.27222841820962013 -0.012278700463394512 0.1438959854815339 -0.28691402962466422 -0.031167544253925279 -0.28691402962466422 -0.048748549374236901 -0.012278700463394512 0.045282657296805154 -0.27222841820962013 0.16950400215242326
leaf_weight=381 2705.5 1221 175.5 423 155 586 3282.5 447.5 6156.5 2545.5 194.5 182 887 1255.5 1844.5 5418.5 347.5 667.5 1468 4636.5 122 764 828.5 68.5 175 49 749 49.5
leaf_count=331 2082 931 153 329 109 473 2498 289 4900 2076 166 168 830 995 1444 4391 270 500 1150 3898 88 719 735 58 152 43 690 38
internal_value=0.000917431 -0.153566 0.141748 -0.0985604 0.0737464 0.180674 -0.232499 -0.0524714 -0.0416902 0.118873 0.131453 -0.19644 -0.188704 0.216096 0.131283 0.22603 -0.302351 -0.188704 -0.0122787 0.143896 -0.387324 -0.0122787 -0.286914 -0.132931 -0.0122787 -0.00832969 -0.286914 0.143896
internal_weight=37786 18019.5 19766.5 10619.5 7196 12570.5 7400 7027 6604 4720 5261 4881 3592.5 7309.5 4390 6674 2519 3950 2476 4831 469.5 2232 2049.5 244 330 430 931 635.5
internal_count=30506 14310 16196 8430 5861 10335 5880 5518 5189 3781 4438 3856 2912 5897 3520 5386 2024 2998 2080 4064 358 1869 1666 211 261 374 858 511
is_linear=0
shrinkage=0.04


Tree=27
num_leaves=30
num_cat=0
split_feature=2 3 15 15 7 24 1 1 7 13 1 14 13 13 13 7 1 24 23 18 1 7 1 1 7 13 1 7 23
split_gain=474732 56647 32623.8 21897 18711.1 14222.2 11564.4 10237.1 8796.85 4562.16 4523.58 4413.31 3675.72 3662.85 3645.13 3285.66 3089.67 3056.86 3021.21 2949.15 2706.87 1688.02 1517.15 694.161 672.983 645.041 527.76 503.155 377.207
threshold=0.32667824515394023 0.58290788905921354 0.1394700227222074 0.1394700227222074 0.60402344704743149 0.051601855441137205 0.62248322461644412 0.63784228753395911 0.60402344704743149 0.041528942615251058 0.78733835722711587 -0.046418784044273097 0.041528942615251058 -0.13789323587579572 0.0074644192033803012 0.7853125508160812 0.59127003253898192 -0.29174193614185018 0.29262612460011417 0.086047734533527265 0.64107325454604802 0.69911869987005038 0.7406311859524477 0.64107325454604802 0.49072404549233922 0.068334723196885161 0.26512739693317317 0.69911869987005038 0.15630495811318312
decision_type=2 2 2 2 2 2 2 2 2 2 2 2 2 2 2 2 2 2 2 2 2 2 2 2 2 2 2 2 2
left_child=1 3 6 7 12 13 8 9 24 -1 14 25 23 -3 -5 20 -13 -9 28 -20 -6 -10 -14 -4 -2 -7 -17 -15 -8
right_child=2 5 4 10 15 11 18 17 21 -11 -12 16 22 27 -16 26 -18 -19 19 -21 -22 -23 -24 -25 -26 -27 -28 -29 -30
leaf_value=0.11299755652267743 -0.15023926349027533 -0.15023926349027533 -0.15023926349027533 0.11299755652267743 -0.15023926349027533 -0.057832247340568854 -0.54122477662001889 -0.057832247340568854 -0.20461128536232809 0.18765252115866038 0.062009781058397592 0.091448468904127694 -0.057832247340568854 -0.057832247340568854 0.21934115978822774 -0.19787854378013114 -0.0044793934905827679 0.052532478050932724 -0.25849675382568754 -0.37175606315700604 -0.24651682831499241 -0.25849675382568754 -0.15023926349027533 -0.23504521719571123 -0.17826145903132073 -0.0044793934905827679 -0.25849675382568754 -0.15023926349027533 -0.40864180377353293
leaf_weight=3239 1945.5 329.5 562.5 406.5 1630.5 352 45.5 277 943 2201 161.5 3439 3860 1660 7452 272.5 636.5 1744.5 1831.5 462 320.5 1169.5 197.5 155 1378.5 139.5 733 65 176
leaf_count=2619 1484 267 427 327 1206 286 38 254 692 1748 160 2611 2982 1362 5969 213 597 1675 1735 333 299 920 193 140 1066 101 588 47 167
internal_value=0.00113234 0.120561 -0.167184 0.162439 -0.108673 0.0226434 -0.224073 0.113114 -0.191249 0.143208 0.208326 0.0620098 -0.0597034 -0.0597034 0.212905 -0.187753 0.0620098 0.0620098 -0.295008 -0.281337 -0.157448 -0.255084 -0.0597034 -0.150239 -0.150669 -0.0578322 -0.246517 -0.0578322 -0.436252
internal_weight=37786 22103 15683 15481.5 7731.5 6621.5 7951.5 7461.5 5436.5 5440 8020 4567 4775 2054.5 7858.5 2956.5 4075.5 2021.5 2515 2293.5 1951 2112.5 4057.5 717.5 3324 491.5 1005.5 1725 221.5
internal_count=30506 18023 12483 12752 6048 5271 6435 6296 4162 4367 6456 3595 3742 1676 6296 2306 3208 1929 2273 2068 1505 1612 3175 567 2550 387 801 1409 205
is_linear=0
shrinkage=0.04


Tree=28
num_leaves=27
num_cat=0
split_feature=5 2 17 15 5 17 5 1 11 12 14 17 3 17 19 17 1 16 19 11 5 1 3 17 14 5
split_gain=437843 46890.8 32046.8 20387.2 17751.2 12538.4 11464 7441.45 6820.48 5139.29 5129.03 4877.04 4389.06 3988.81 3630.47 3582.67 2803.52 1164.39 1092.47 1029.11 717.593 573.276 731.137 571.422 495.947 73.8536
threshold=4.7150259485656303 0.25997333064045508 1.3562916760338435 0.10484577955571311 3.34618305146578 1.4712835726435123 2.5498737020336688 0.69536439155665397 0.29423287321422648 1.3637629259238471 -0.059711424269219847 -2.0043162196163631 0.55640361875160493 0.18723485840535295 0.029790697547574106 2.2013560491023543 0.62823569669521862 0.059828412071375452 0.031158549588816805 0.0018458546430176503 1.444070982449255 0.73637930458744305 0.55906866483693918 -0.71845079985859661 -0.0030018579569057995 2.0530223124033795
decision_type=2 2 2 2 2 2 2 2 2 2 2 2 2 2 2 2 2 2 2 2 2 2 2 2 2 2
left_child=2 3 4 11 9 13 20 8 -6 16 -5 -2 -12 23 15 -8 -1 -11 -7 -9 -4 -16 -20 -3 -13 -22
right_child=1 5 6 10 7 18 14 19 -10 17 12 24 -14 -15 21 -17 -18 -19 22 -21 25 -23 -24 -25 -26 -27
leaf_value=-0.2352042541971314 -0.032119797087669981 -0.089650240546301829 -0.22896348427732188 0.095679034312439556 -0.089650240546301829 0.095679034312439556 -0.044409157666505675 -0.2161260960175562 -0.2352042541971314 -0.42146130534556164 0.2042873978243441 0.095679034312439556 0.13513913294616595 0.0015026866392936246 -0.089650240546301829 0.052672342964737176 -0.28854900480328793 -0.30431583930603273 0.095679034312439556 -0.28854900480328793 -0.16912676643261826 -0.15391714399636192 0.0015026866392936246 -0.058875474722160294 0.11324001173144063 -0.15391714399636192
leaf_weight=4328 224 339 250.5 324 3331 1104 1566.5 697.5 394 249 8024.5 2859 1800 2146.5 746.5 994 1841 306.5 44.5 151 534 85 285.5 978 3592 590.5
leaf_count=3317 223 307 193 251 2597 863 1191 677 262 188 6470 2383 1383 1808 598 728 1664 222 40 114 419 84 239 829 2998 458
internal_value=0.00117016 0.118269 -0.157155 0.149979 -0.193853 0.00934071 -0.0701762 -0.133046 -0.108663 -0.235204 0.185691 0.095679 0.191621 -0.0321198 -0.0321198 -0.00671837 -0.235204 -0.356936 0.095679 -0.235204 -0.167617 -0.0896502 0.0173912 -0.0869176 0.095679 -0.153917
internal_weight=37786 21721 16065 16823.5 11298 4897.5 4767 4573.5 3725 6724.5 10148.5 6675 9824.5 3463.5 3392 2560.5 6169 555.5 1434 848.5 1375 831.5 330 1317 6451 1124.5
internal_count=30506 17794 12712 13708 9041 4086 3671 3650 2859 5391 8104 5604 7853 2944 2601 1919 4981 410 1142 791 1070 682 279 1136 5381 877
is_linear=0
shrinkage=0.04


Tree=29
num_leaves=25
num_cat=0
split_feature=2 5 15 15 2 13 3 1 1 13 13 6 11 1 13 1 14 22 15 0 2 23 22 12
split_gain=403026 43492.5 23219.9 19838.8 15330.9 14895.9 10219.7 8327.69 6464.94 5492.48 5631.6 5117.94 4944.05 5119.64 4077.15 3753.65 2758.81 2667.16 2546.98 2070.46 1643.58 1568.44 1491.8 863.579
threshold=0.28576032180461175 3.7898998433393323 0.10484577955571311 0.095217700568103913 0.19424783854817942 0.0074644192033803012 0.53855593175327787 0.71446241633634455 0.62823569669521862 -0.21694893634533 -0.29808014659825016 2.5000000000000004 0.41668968470299012 0.62248322461644412 0.2560227991771471 0.4254920850734582 -0.050450882388946898 -0.30267990573622994 -0.18857758019217305 0.50384246499162033 0.24153220711316484 0.39049363055375114 -0.30267990573622994 1.1849000766098137
decision_type=2 2 2 2 2 2 2 2 2 2 2 2 2 2 2 2 2 2 2 2 2 2 2 2
left_child=2 3 4 12 10 18 14 11 19 -6 -1 -7 13 -2 16 -11 -4 -16 -3 -5 -8 -12 -10 -14
right_child=1 5 6 8 9 7 20 -9 22 15 21 -13 23 -15 17 -17 -18 -19 -20 -21 -22 -23 -24 -25
leaf_value=-0.092647988319144878 -0.19606742985482523 -0.19606742985482523 0.12562178188393119 -0.1356289430910996 -0.1356289430910996 -0.1356289430910996 0.12562178188393119 -0.1356289430910996 -0.19606742985482523 0.087954303340625581 0.087954303340625581 0.010199104959416823 -0.31802613835737975 -0.28826771493000086 0.3221049275695087 0.010199104959416823 0.18819946414358524 0.18819946414358524 -0.1356289430910996 -0.19606742985482523 0.087954303340625581 0.12562178188393119 -0.28563891138503233 -0.42559746748607552
leaf_weight=189 2759 283 343.5 4343.5 227.5 293 1300.5 415.5 781 1122 843.5 4360 310 1483.5 588 2021.5 6949.5 225.5 1751 1131 2130.5 3286.5 448.5 199.5
leaf_count=163 2141 235 278 3293 194 154 1035 408 706 860 750 3495 208 1361 466 1749 5634 161 1422 846 1649 2730 429 139
internal_value=0.00123003 -0.131738 0.129572 -0.179954 0.0757266 -0.0539666 0.16546 -0.0171053 -0.135629 0.0117952 0.125622 -0.000845088 -0.242478 -0.228318 0.191015 0.0259371 0.18153 0.27599 -0.135629 -0.135629 0.125622 0.125622 -0.227366 -0.360271
internal_weight=37786 18558.5 19227.5 11456 7690 7102.5 11537.5 5068.5 6704 3371 4319 4653 4752 4242.5 8106.5 3143.5 7293 813.5 2034 5474.5 3431 4130 1229.5 509.5
internal_count=30506 14837 15669 9123 6446 5714 9223 4057 5274 2803 3643 3649 3849 3502 6539 2609 5912 627 1657 4139 2684 3480 1135 347
is_linear=0
shrinkage=0.04


Tree=30
num_leaves=30
num_cat=0
split_feature=3 7 2 17 17 3 17 17 24 17 17 7 14 17 24 2 21 15 7 17 17 17 3 17 19 21 23 17 17
split_gain=372496 39993.3 24514.4 24413 18346.9 10645.7 8196.46 6251.65 5907.58 5452.77 4150.43 3476.46 3369.27 2985.78 2739.15 2601.91 2434.12 2224.38 2279.13 2114.19 2095.54 1579.22 1576.4 1273.39 984.782 589.697 472.963 413.514 49.3586
threshold=0.66059375023890288 0.60402344704743149 0.19425210699844411 1.3562916760338435 1.5828525881145239 0.77740476129967939 0.78021450115140434 0.22345585237532953 0.033151823792680009 0.15065807154612854 -0.14972808031912696 0.7853125508160812 -0.050450882388946898 2.2013560491023543 0.7213346062192264 0.33530870583361477 -0.71963233641645763 -0.18857758019217305 0.74636661841929153 -1.1664622724121825 1.696113908756564 -0.78461703757429557 0.62194435314564267 2.8147681850050614 0.022576553915251454 -0.71423537881788812 0.28833860914680481 3.5716967458723374 -0.28858022664384236
decision_type=2 2 2 2 2 2 2 2 2 2 2 2 2 2 2 2 2 2 2 2 2 2 2 2 2 2 2 2 2
left_child=2 3 7 5 8 10 17 21 19 -7 -2 20 -10 15 16 -5 -9 26 -19 -4 -8 -1 25 -13 -24 -6 -3 -15 -23
right_child=1 6 4 13 22 9 11 14 12 -11 -12 23 -14 27 -16 -17 -18 18 -20 -21 -22 28 24 -25 -26 -27 -28 -29 -30
leaf_value=0.082183289761322581 -0.14784287909847391 -0.44847102997914179 -0.11507925912108441 0.00051021015981463362 0.15256590512430532 -0.21804726118584414 -0.16701987371863447 0.16156915426556076 0.00051021015981463362 -0.12950793518163822 -0.045686979324152652 -0.2397859561981647 0.082183289761322581 0.03675975126699748 0.45622813285909408 -0.045686979324152652 0.19429636820294532 -0.21804726118584414 -0.28313741617856147 0.00051021015981463362 -0.084619504588339889 0.11979930592547662 0.15256590512430532 -0.084619504588339889 0.082183289761322581 0.19429636820294532 -0.32323349014425728 0.082183289761322581 0.13231124577981945
leaf_weight=535 846.5 57 287.5 681 225 1822.5 1259 2218 543.5 2863 2564 910 3551 1224 57 1497.5 5641 1569.5 1257.5 2143.5 814 786 347 91.5 282 1523 376 186.5 1627
leaf_count=494 706 52 280 535 189 1468 1000 1747 450 2254 2076 735 2985 920 50 1169 4558 1239 1031 1792 611 658 246 71 198 1197 297 146 1352
internal_value=0.00133288 -0.130204 0.121244 -0.0863254 0.0720324 -0.12482 -0.21114 0.161569 0.0373262 -0.163954 -0.0710496 -0.164265 0.0673573 0.00051021 0.180089 -0.0288443 0.178077 -0.255335 -0.242366 0.00051021 -0.134675 0.111831 0.161569 -0.225478 0.0972082 0.161569 -0.339883 0.0458505 0.128246
internal_weight=37786 18019.5 19766.5 11685 8902.5 8096 6334.5 10864 6525.5 4685.5 3410.5 3074.5 4094.5 3589 7916 2178.5 7859 3260 2827 2431 2073 2948 2377 1001.5 629 1748 433 1410.5 2413
internal_count=30506 14310 16196 9274 7337 6504 5036 8859 5507 3722 2782 2417 3435 2770 6355 1704 6305 2619 2270 2072 1611 2504 1830 806 444 1386 349 1066 2010
is_linear=0
shrinkage=0.04


Tree=31
num_leaves=29
num_cat=0
split_feature=2 3 17 15 0 17 1 0 1 13 1 11 17 13 13 17 1 13 11 1 3 6 17 18 0 13 1 1
split_gain=344234 41078.2 26279.1 16271.2 13050 12234.8 11732.4 8917.31 6939.85 6846.56 5848.69 3847 3682.82 3262.18 2997.89 2840.94 2783.81 2498.13 2363.01 2285.29 2256.83 1837.27 1292.78 1191.98 584.053 424.333 163.73 41.0874
threshold=0.32667824515394023 0.58290788905921354 1.3703615627066148 0.1394700227222074 0.37706932926117182 1.2697926139726825 0.67155163315448752 0.39291180006151305 0.57732346532399814 -0.10523395632504855 0.4698478803575159 0.22571731084926985 2.2013560491023543 0.29808638458057851 -0.21694893634533 3.9176840676814693 0.78733835722711587 0.050675247253069301 0.6170070377021758 0.5379483712515144 0.69585435680870034 2.5000000000000004 1.8596620580591356 0.03581566721898486 0.62737043601408649 -0.13789323587579572 0.64513188230642127 0.45217720634723607
decision_type=2 2 2 2 2 2 2 2 2 2 2 2 2 2 2 2 2 2 2 2 2 2 2 2 2 2 2 2
left_child=1 3 4 10 6 8 9 12 11 -2 17 -3 23 16 -10 -15 -5 -1 21 24 -14 -6 -7 -4 -9 -20 -21 -24
right_child=2 5 7 13 18 22 -8 19 14 -11 -12 -13 20 15 -16 -17 -18 -19 25 26 -22 -23 27 -25 -26 -27 -28 -29
leaf_value=0.11535596540963323 -0.23331312733164727 0.03394078406036552 -0.039258605761957562 0.17562254926358783 -0.3113436657697245 0.046963828950049573 -0.23331312733164727 -0.10160685169792348 -0.23331312733164727 -0.10000291301081943 0.091359350019516075 -0.093811549743641309 0.091359350019516075 0.24325825763343734 -0.093811549743641309 0.56494391618611783 0.091359350019516075 0.17562254926358783 -0.41732208628744288 -0.18572201092804455 0.00096357205412508169 -0.23331312733164727 0.11535596540963323 -0.10000291301081943 -0.17246514115758768 -0.3113436657697245 -0.23331312733164727 0.091359350019516075
leaf_weight=1885.5 576 2401.5 1345.5 7295.5 522.5 1050.5 1570.5 775 130.5 4929 4253.5 394 182 519 1284.5 48 157.5 1322.5 114 127.5 1112.5 3246 1059.5 620 246 115.5 201 301
leaf_count=1469 450 1894 1044 5859 437 828 1454 577 108 3814 3823 265 147 395 1171 46 156 1004 77 104 834 2604 753 492 183 79 187 252
internal_value=0.00119359 0.102891 -0.142134 0.138553 -0.175541 0.0195081 -0.142892 -0.0618753 -0.0216355 -0.115329 0.0960338 0.0148989 -0.0260749 0.178109 -0.0938115 0.270644 0.171063 0.145843 -0.233313 -0.148342 0.0263075 -0.233313 0.0913594 -0.060577 -0.118708 -0.361809 -0.233313 0.0913594
internal_weight=37786 22103 15683 15481.5 11073.5 6621.5 7075.5 4609.5 4210.5 5505 7461.5 2795.5 3260 8020 1415 567 7453 3208 3998 1349.5 1294.5 3768.5 2411 1965.5 1021 229.5 328.5 1360.5
internal_count=30506 18023 12483 12752 8915 5271 5718 3568 3438 4264 6296 2159 2517 6456 1279 441 6015 2473 3197 1051 981 3041 1833 1536 760 156 291 1005
is_linear=0
shrinkage=0.04


Tree=32
num_leaves=30
num_cat=0
split_feature=2 7 15 15 2 5 2 15 17 17 5 13 7 23 7 15 13 15 7 12 15 15 15 22 27 13 23 17 23
split_gain=316600 34875.6 23313.3 18596.3 12274.1 9113.04 7680.33 7297.98 6423.38 5281.63 5204.99 4446.58 4119.84 3658.23 3009.39 2959.99 2679.44 2622.84 2467.8 2222.98 2109.87 1914.6 1736.22 1154.66 1077.71 1051.48 786.954 315.963 185.254
threshold=0.28576032180461175 0.60402344704743149 0.079517623500857462 0.10484577955571311 0.19424783854817942 4.1338114824338161 0.19999752681583002 0.016305216925787902 1.8986019032744548 1.9626972213386806 4.1615205120235741 -0.24081993921099987 0.69911869987005038 0.39049363055375114 0.82545099197877969 -0.16877609147728376 0.26149852312431254 -0.2016063388291828 0.72461672654929432 1.1438093936458587 -0.34297954656657414 0.16828766988521188 0.23573064455239748 0.14698871513990253 0.48353906009590553 -0.29808014659825016 0.25600023360981228 1.8222133299481589 0.60400961980408097
decision_type=2 2 2 2 2 2 2 2 2 2 2 2 2 2 2 2 2 2 2 2 2 2 2 2 2 2 2 2 2
left_child=3 2 10 4 11 9 16 25 18 -4 17 -1 15 -13 21 -6 27 -2 -8 -18 -12 -9 -7 -10 -16 28 -27 -5 -3
right_child=1 7 5 6 12 22 8 14 23 -11 20 13 -14 -15 24 -17 19 -19 -20 -21 -22 -23 -24 -25 -26 26 -28 -29 -30
leaf_value=0.0094548598169740521 -0.2622619531120523 -0.40750015051547223 -0.096315592770481961 0.15886299010311056 -0.091481891333103707 0.0013822754222394453 0.083210700826848824 -0.17961408312818083 0.17433036893434387 0.0013822754222394453 -0.2622619531120523 0.047346431953072865 -0.16629246865103067 0.14154936825016104 -0.2622619531120523 0.0094548598169740521 0.30061897860545622 -0.16629246865103067 -0.11023006825506058 0.17433036893434387 -0.091481891333103707 -0.11954389066214789 0.051812628368318306 0.083210700826848824 -0.19707617819604464 -0.33979901130294637 -0.2622619531120523 0.17433036893434387 -0.31590572127895949
leaf_weight=248 412.5 85.5 3423.5 4058 444 1670.5 3171.5 1479.5 1377.5 1194 103 828.5 92.5 3242.5 470 2834.5 492.5 2357 109 160.5 1602.5 1999 1440 105 656 239 1357.5 2063.5 69
leaf_count=210 343 72 2688 3375 381 1382 2627 1183 1045 901 91 735 64 2698 360 2358 396 1892 62 103 1340 1549 1140 66 551 198 1094 1549 53
internal_value=0.0010942 -0.116758 -0.0771833 0.114846 0.0666586 -0.0351092 0.146962 -0.192739 0.108031 -0.0710522 -0.149837 0.111303 0.00945486 0.122382 -0.166292 0.00945486 0.17433 -0.166292 0.0767767 0.25541 -0.0914819 -0.166292 0.00945486 0.17433 -0.231723 -0.262262 -0.262262 0.17433 -0.366979
internal_weight=37786 18558.5 12203 19227.5 7690 7728 11537.5 6355.5 4763 4617.5 4475 4319 3371 4071 4604.5 3278.5 6774.5 2769.5 3280.5 653 1705.5 3478.5 3110.5 1482.5 1126 1751 1596.5 6121.5 154.5
internal_count=30506 14837 9777 15669 6446 6111 9223 5060 3800 3589 3666 3643 2803 3433 3643 2739 5423 2235 2689 499 1431 2732 2522 1111 911 1417 1292 4924 125
is_linear=0
shrinkage=0.04


Tree=33
num_leaves=29
num_cat=0
split_feature=3 7 15 2 15 2 15 15 11 19 15 3 21 22 9 19 7 22 13 22 11 27 7 22 22 9 12 13
split_gain=293098 31697.3 19539.8 18972.2 13935.8 8689.53 6747.9 6542.04 5877.61 5334.44 4651.45 4137.42 4042.72 5567.25 3415.91 3007.92 2970.17 2787.63 3023.05 1885.69 1778.31 1761.64 1996.63 1326.03 1323.6 1307.78 1301.82 412.188
threshold=0.66059375023890288 0.60402344704743149 0.071980521558224306 0.19424783854817942 0.16125081154970558 0.33726101802121783 0.14299447186595801 0.1084980957278326 0.36485862430683319 0.031158549588816805 -0.15013526363133603 0.84828155803547245 -0.71423537881788812 -0.44496614216245239 0.15275194381427901 0.027372655377191954 0.73881873265011022 -0.40827168372029266 0.24259499996918327 -0.64040047658177757 0.35951763360392491 0.51035713926476223 0.71133910298290337 0.14698871513990253 -0.41156720173712463 0.15275194381427901 1.2200825473638728 -0.097327557397035691
decision_type=2 2 2 2 2 2 2 2 2 2 2 2 2 2 2 2 2 2 2 2 2 2 2 2 2 2 2 2
left_child=3 2 8 6 10 25 12 20 11 23 -5 -2 19 -14 -12 -7 21 18 -8 -1 22 -9 -3 -6 -11 -4 -18 -22
right_child=1 7 5 4 9 15 17 16 -10 24 14 -13 13 -15 -16 -17 26 -19 -20 -21 27 -23 -24 -25 -26 -27 -28 -29
